{"meta": {"mean": 0.1307, "std": 0.3081, "input_size": 28, "conv1": {"in_channels": 1, "out_channels": 8, "kernel_size": 3, "padding": 1}, "conv2": {"in_channels": 8, "out_channels": 16, "kernel_size": 3, "padding": 1}, "fc": {"in_features": 784, "out_features": 10}}, "conv1_weight": [[[[0.3344327211380005, 0.1934121996164322, 0.18640097975730896], [-0.5105049014091492, -0.4577244222164154, -0.3133637607097626], [0.11645574122667313, 0.27920588850975037, -0.004128824919462204]]], [[[-0.3013322055339813, 0.2006354182958603, 0.04998404160141945], [0.35060635209083557, -0.08651351928710938, 0.3736419975757599], [0.14614367485046387, 0.3695034086704254, 0.33068719506263733]]], [[[0.4270242750644684, 0.09031827002763748, 0.4614315330982208], [-0.11425743252038956, 0.28636664152145386, 0.0029352533165365458], [0.3291042149066925, -0.21432052552700043, -0.4317995607852936]]], [[[0.3057858347892761, -0.1692776381969452, -0.2434639185667038], [0.5425217747688293, -0.26296916604042053, -0.23720860481262207], [0.012029399164021015, 0.036559104919433594, -0.30847159028053284]]], [[[0.2225712239742279, -0.2162998765707016, 0.1849469393491745], [-0.1807166188955307, -0.2381860911846161, 0.3516547679901123], [-0.3463885486125946, 0.12148687988519669, 0.37238797545433044]]], [[[0.02356715314090252, 0.2291603833436966, 0.20629999041557312], [0.01691294088959694, 0.5278915166854858, 0.08807788044214249], [-0.17057226598262787, -0.20208144187927246, 0.48212742805480957]]], [[[0.29780814051628113, 0.038043536245822906, -0.09541093558073044], [0.45611631870269775, 0.4947468936443329, 0.19280783832073212], [-0.2551679015159607, -0.06188541650772095, 0.4533105492591858]]], [[[0.07338874787092209, 0.3741411566734314, 0.4326435625553131], [-0.30184969305992126, -0.08964695781469345, -0.2530170679092407], [-0.2743470370769501, -0.1925811469554901, -0.2975695729255676]]]], "conv1_bias": [0.000991461449302733, 0.4379967153072357, 0.2537493109703064, 0.06360352039337158, 0.1883886456489563, 0.029961509630084038, -0.22508025169372559, 0.04599815607070923], "conv2_weight": [[[[0.18172192573547363, 0.23850393295288086, 0.07867811620235443], [0.05688822269439697, 0.2143847495317459, 0.19901584088802338], [0.11295637488365173, 0.21794120967388153, 0.1417970061302185]], [[-0.0018496952252462506, 0.02107199653983116, 0.15032759308815002], [-0.06232742592692375, -0.08175172656774521, -0.06152861565351486], [-0.09369701147079468, 0.0403701551258564, -0.04929643124341965]], [[0.05512389540672302, -0.03111804649233818, -0.002209065016359091], [0.09040995687246323, 0.2316172868013382, 0.12350194156169891], [0.06533543020486832, 0.0003954669227823615, 0.0012255874462425709]], [[0.11221356689929962, -0.13678154349327087, -0.2379029542207718], [-0.2929743826389313, -0.13415732979774475, -0.23603403568267822], [-0.06683231145143509, -0.15755508840084076, -0.11674105376005173]], [[-0.013043886981904507, -0.023632055148482323, 0.06481241434812546], [-0.041871000081300735, -0.05446520075201988, -0.0026785421650856733], [-0.17389023303985596, -0.04492618888616562, -0.14368268847465515]], [[0.07024426013231277, 0.11609356850385666, -0.02138478495180607], [-0.033581916242837906, 0.0045342217199504375, 0.07117865234613419], [-0.1657385528087616, -0.041877973824739456, -0.1943388730287552]], [[0.16635464131832123, 0.05824044719338417, 0.08039414882659912], [0.08004024624824524, 0.19444771111011505, 0.14814409613609314], [-0.17010807991027832, -0.13689976930618286, -0.07810929417610168]], [[0.10405110567808151, 0.06308268010616302, 0.020522676408290863], [0.1351240873336792, 0.08733569085597992, 0.2624131739139557], [0.3418195843696594, 0.2841854691505432, 0.10153204947710037]]], [[[0.2130242884159088, 0.20662954449653625, 0.08699509501457214], [0.11375584453344345, 0.04390965774655342, 0.2909684479236603], [0.1551271229982376, 0.3108697831630707, 0.13760492205619812]], [[0.03456399589776993, -0.040758904069662094, 0.04191357642412186], [0.2086481750011444, 0.0852198526263237, -0.023472212255001068], [0.04372771084308624, -0.10835158079862595, 0.01891910657286644]], [[-0.06744329631328583, -0.18488766252994537, -0.22651776671409607], [0.010125447995960712, -0.015479303896427155, 0.12695811688899994], [0.262647420167923, 0.1499694585800171, 0.038581620901823044]], [[-0.03788936510682106, -0.15308243036270142, -0.17656172811985016], [-0.23952792584896088, -0.36851876974105835, -0.17019182443618774], [-0.11733489483594894, -0.16506826877593994, -0.10214744508266449]], [[-0.1540863960981369, -0.13904955983161926, -0.07583237439393997], [0.11276347935199738, 0.013207290321588516, -0.03648097813129425], [-0.04643084853887558, 0.0679236426949501, -0.04247651621699333]], [[-0.24354739487171173, -0.29201769828796387, -0.2280641496181488], [0.055417150259017944, 0.14660456776618958, 0.17136357724666595], [-0.005803111474961042, 0.011641096323728561, 0.06707394868135452]], [[-0.16101495921611786, -0.1657552570104599, -0.15042802691459656], [0.048021454364061356, 0.12727797031402588, 0.11648932099342346], [0.11636534333229065, -0.0015775789506733418, 0.10460001230239868]], [[0.03241945803165436, -0.01609656773507595, -0.11124714463949203], [-0.14788107573986053, 0.1492488831281662, 0.26428550481796265], [0.15180285274982452, 0.30284610390663147, 0.14945189654827118]]], [[[-0.10767673701047897, -0.07123450189828873, 0.13491274416446686], [0.13065333664417267, 0.041265908628702164, 0.091877281665802], [0.043781932443380356, 0.05370998755097389, 0.1382226198911667]], [[0.0335036963224411, 0.11988319456577301, 0.09648271650075912], [0.033715784549713135, 0.02380923181772232, -0.05968672037124634], [0.05323666334152222, -0.09866724908351898, -0.1702423244714737]], [[-0.10835409164428711, -0.06827650219202042, 0.1398783028125763], [0.06133472919464111, 0.15697158873081207, 0.11223916709423065], [0.07622677087783813, -0.023617466911673546, 0.052845586091279984]], [[-0.051615599542856216, -0.1266038715839386, -0.11389382928609848], [-0.08072411268949509, -0.1431788057088852, -0.006170622538775206], [0.02783798612654209, 0.08586454391479492, -0.03613952174782753]], [[-0.08146734535694122, -0.0001649944606469944, 0.0247696191072464], [0.019199034199118614, -0.03307139128446579, 0.0487656444311142], [0.08072973042726517, -0.03180277347564697, 0.07934531569480896]], [[-0.08069245517253876, -0.029190734028816223, 0.05198335647583008], [0.03608544543385506, -0.08135508000850677, 0.08300405740737915], [-0.054715078324079514, 0.03842375427484512, -0.04299643263220787]], [[-0.011840772815048695, -0.09232592582702637, 0.08960407972335815], [-0.016796719282865524, -0.06026064604520798, 0.11307966709136963], [0.037963900715112686, -0.00456596165895462, -0.20667387545108795]], [[-0.05624720826745033, -0.08316454291343689, 0.10984120517969131], [-0.02802150323987007, -0.15310052037239075, 0.048105522990226746], [-0.01817069947719574, 0.09780851751565933, 0.18769094347953796]]], [[[-0.29066476225852966, -0.12439504265785217, 0.08607052266597748], [-0.24493436515331268, -0.2583405673503876, -0.007942997850477695], [-0.16233204305171967, -0.12338186800479889, -0.1307211071252823]], [[0.07476361840963364, 0.05047932639718056, 0.023773202672600746], [0.22534596920013428, -0.010116917081177235, -0.17703844606876373], [0.1777276247739792, -0.1936691701412201, -0.28205421566963196]], [[-0.13205748796463013, 0.1625734567642212, 0.10595779865980148], [0.13052627444267273, 0.01997809112071991, -0.06106323003768921], [0.14016182720661163, 0.0812707170844078, -0.1281406581401825]], [[-0.14423468708992004, 0.018972313031554222, 0.20942431688308716], [0.003726131981238723, 0.05253640562295914, 0.1649409532546997], [0.21884432435035706, 0.1341826468706131, 0.07821685075759888]], [[0.23293274641036987, -0.050933271646499634, -0.12946635484695435], [0.18810036778450012, 0.024570176377892494, -0.09759672731161118], [0.10101595520973206, -0.04687117040157318, -0.06707973778247833]], [[0.10272558778524399, 0.11678148806095123, -0.03030908852815628], [0.054367147386074066, -0.009735404513776302, -0.13499584794044495], [0.10827938467264175, -0.019946448504924774, -0.25887900590896606]], [[0.008369958959519863, 0.025661790743470192, 0.12484430521726608], [0.014159574173390865, 0.14442721009254456, -0.10845726728439331], [0.07457205653190613, -0.07826173305511475, -0.2677401006221771]], [[-0.14363470673561096, -0.15260346233844757, 0.019462695345282555], [-0.33205971121788025, -0.1267302930355072, -0.034576620906591415], [-0.18521848320960999, -0.1715802550315857, 0.01599128730595112]]], [[[-0.023497948423027992, -0.05528947710990906, 0.01940600946545601], [-0.13417716324329376, -0.000777060107793659, 0.05139630660414696], [0.026151543483138084, -0.1564379632472992, -0.12548686563968658]], [[0.10137670487165451, 0.090878926217556, -0.02706749737262726], [-0.049361225217580795, 0.03102492354810238, -0.02288699336349964], [-0.035269226878881454, 0.14284160733222961, 0.009636600501835346]], [[-0.04210693761706352, 0.059028416872024536, 0.031833384186029434], [-0.06161568686366081, -0.05251143500208855, -0.009443405084311962], [-0.14589358866214752, -0.011021639220416546, 0.08823212236166]], [[0.037811774760484695, 0.07888656109571457, 0.23282025754451752], [0.09051372110843658, -0.0735551193356514, 0.15553449094295502], [-0.07555054128170013, -0.22147618234157562, 0.20296542346477509]], [[0.18065759539604187, -0.0018754296470433474, -0.12055738270282745], [-0.010312792845070362, 0.10907046496868134, 0.03959503769874573], [0.15270473062992096, 0.07575792074203491, -0.07076604664325714]], [[-0.0029754380229860544, 0.12323421239852905, -0.24502509832382202], [0.12106221169233322, 0.07662259787321091, -0.07331717759370804], [-0.08588451147079468, 0.056518714874982834, 0.000293178774882108]], [[-0.02163464017212391, 0.03382525220513344, -0.049502741545438766], [0.004191858693957329, 0.0863640233874321, -0.06332584470510483], [-0.09782399982213974, 0.03580816835165024, 0.12480000406503677]], [[-0.15922921895980835, -0.2203575223684311, 0.025317739695310593], [-0.09619247913360596, -0.10776844620704651, -0.1176508292555809], [0.04096309468150139, -0.0884811207652092, -0.061379898339509964]]], [[[-0.1307101994752884, -0.13698603212833405, 0.03359798714518547], [-0.07444044202566147, -0.09565424174070358, -0.05469249561429024], [-0.079829640686512, -0.0656367614865303, 0.07811836898326874]], [[0.19439740478992462, -0.18251672387123108, -0.20479993522167206], [0.013383259996771812, -0.051141511648893356, -0.20241571962833405], [0.04419349879026413, -0.04806109517812729, 0.04088809713721275]], [[0.05865085870027542, 0.12847600877285004, -0.20300522446632385], [0.12268537282943726, 0.060262251645326614, -0.30028483271598816], [0.06544668972492218, 0.12056834995746613, -0.09597539901733398]], [[0.15048713982105255, 0.19975419342517853, 0.08702310174703598], [0.09322252869606018, 0.13537785410881042, 0.007140737492591143], [-0.0025388705544173717, 0.05330723524093628, -0.0015968549996614456]], [[-0.09323039650917053, -0.007074472960084677, 0.00695816520601511], [0.09094671159982681, -0.03629939630627632, -0.19744886457920074], [0.012614353559911251, -0.04040810093283653, -0.08505348116159439]], [[0.10131526738405228, -0.1346593201160431, -0.28502994775772095], [0.06518246978521347, -0.05843953415751457, -0.015390634536743164], [0.17843927443027496, -0.1571047455072403, -0.10702596604824066]], [[-0.01561671867966652, 0.006271128077059984, -0.24328945577144623], [0.18192976713180542, -0.2020965963602066, -0.07015816867351532], [0.14003145694732666, -0.161922886967659, -0.02077997662127018]], [[-0.10889004170894623, -0.010934545658528805, -0.062182068824768066], [-0.05175589397549629, 0.03815751150250435, 0.07901042699813843], [-0.040202461183071136, 0.01859576813876629, 0.02099045179784298]]], [[[0.09227122366428375, 0.01578228548169136, -0.08256976306438446], [0.057381872087717056, -0.03529570624232292, -0.31470078229904175], [-0.12283213436603546, -0.28216803073883057, -0.054551396518945694]], [[0.059907153248786926, 0.0009111632243730128, -0.01799262873828411], [-0.20297911763191223, 0.0730738639831543, -0.017238890752196312], [0.011706848628818989, 0.040873344987630844, -0.00989414844661951]], [[0.048077162355184555, -0.005305147729814053, -0.09341199696063995], [-0.020976856350898743, -0.0694919005036354, 0.06108688563108444], [-0.046011216938495636, -0.05231847986578941, 0.08331827074289322]], [[-0.2698058485984802, -0.10440600663423538, 0.10358159989118576], [-0.028949469327926636, -0.16755376756191254, 0.18524278700351715], [-0.06775256246328354, 0.002566701965406537, 0.21794869005680084]], [[-0.03232947364449501, 0.09163844585418701, -0.0697333812713623], [-0.09339791536331177, 0.105905681848526, 0.06801357865333557], [0.07102227956056595, 0.09603050351142883, 0.1457097977399826]], [[0.011970879510045052, 0.03184495121240616, 0.0504273846745491], [0.0035661831498146057, -0.045757681131362915, 0.10062336176633835], [-0.0711798369884491, 0.0713769942522049, -0.005053626373410225]], [[0.11751053482294083, 0.0985921174287796, 0.09069478511810303], [-0.15504631400108337, 0.08518748730421066, -0.001881721313111484], [-0.15309752523899078, 0.012306672520935535, -0.021803025156259537]], [[-0.024538321420550346, -0.10621649771928787, -0.09048281610012054], [-0.06468918919563293, -0.046591781079769135, -0.20856644213199615], [-0.1883867233991623, -0.2233179211616516, -0.1450517177581787]]], [[[0.18015797436237335, 0.27089473605155945, 0.18959401547908783], [0.2855108082294464, 0.14744488894939423, 0.06721434742212296], [0.4064437747001648, 0.1815718561410904, -0.1834048181772232]], [[0.0026154315564781427, -0.2782624363899231, -0.31782299280166626], [0.12026455998420715, -0.013692972250282764, -0.12236067652702332], [-0.09215569496154785, 0.004826539661735296, 0.07787815481424332]], [[0.02034899964928627, -0.14344997704029083, -0.15531191229820251], [0.047645196318626404, -0.17021195590496063, -0.11576757580041885], [0.07440392673015594, 0.031678300350904465, -0.09022412449121475]], [[-0.02879423275589943, -0.19690199196338654, -0.06935486197471619], [-0.06830354034900665, 0.09178714454174042, -0.04295463487505913], [-0.1510675996541977, -0.029440544545650482, 0.143805593252182]], [[-0.16507235169410706, -0.14626596868038177, -0.22979290783405304], [0.06725603342056274, -0.02047829143702984, -0.37632718682289124], [0.047070134431123734, 0.2258894145488739, 0.011894924566149712]], [[-0.13501706719398499, -0.3303945064544678, -0.15443076193332672], [0.17899471521377563, 0.08272120356559753, -0.2987123429775238], [0.16690997779369354, 0.29713761806488037, 0.15613055229187012]], [[0.0011066215811297297, -0.11488929390907288, -0.20536333322525024], [0.32350099086761475, 0.2688859701156616, -0.09969276189804077], [0.214026540517807, 0.2214953750371933, 0.05660863593220711]], [[-0.11925157159566879, 0.18592102825641632, 0.17862266302108765], [0.09562563896179199, -0.10801111906766891, 0.018401362001895905], [0.3225289583206177, -0.028000161051750183, 0.0351325124502182]]], [[[-0.038432080298662186, 0.2316015511751175, 0.14557622373104095], [0.14166706800460815, 0.0591571182012558, 0.14280012249946594], [0.1763816624879837, 0.245828777551651, 0.2115076631307602]], [[0.06115098297595978, -0.14011521637439728, 0.02123534120619297], [-0.00585909141227603, 0.0055463314056396484, 0.11382171511650085], [0.02273070439696312, -0.16132844984531403, -0.1329713761806488]], [[0.10537099838256836, 0.015436669811606407, -0.17827418446540833], [0.08115682750940323, 0.08403653651475906, 0.08395808935165405], [0.20999829471111298, 0.1494220644235611, 0.10886713117361069]], [[-0.02993994951248169, -0.10236915946006775, -0.14024204015731812], [-0.06315509229898453, -0.22902540862560272, -0.25317203998565674], [-0.13910521566867828, -0.08618855476379395, -0.17867395281791687]], [[-0.055258575826883316, -0.11476252228021622, 0.09566512703895569], [0.12112534791231155, 0.12432707846164703, 0.03749501705169678], [-0.014997255988419056, -0.021411482244729996, -0.04494510591030121]], [[-0.058702800422906876, 0.04020290449261665, -0.15858620405197144], [0.0831586942076683, 0.0746162086725235, 0.022298334166407585], [-0.03315611556172371, -0.13126979768276215, -0.062259647995233536]], [[-0.12411128729581833, 0.02589718997478485, -0.14011415839195251], [-0.08359916508197784, 0.15473759174346924, 0.08289257436990738], [-0.01777578704059124, 0.08364612609148026, 0.014286400750279427]], [[-0.056655969470739365, 0.009567635133862495, -0.09174898266792297], [-0.04382581263780594, -0.050441328436136246, -0.03926994651556015], [0.09434237331151962, 0.22836105525493622, 0.27828118205070496]]], [[[0.15574921667575836, -0.18458037078380585, -0.17815817892551422], [-0.08142875880002975, -0.1978946030139923, -0.22787410020828247], [0.04492059722542763, -0.04313308000564575, -0.08769465237855911]], [[-0.15647459030151367, 0.017926160246133804, 0.09711102396249771], [0.06524427235126495, 0.1568630039691925, -0.07435955852270126], [0.058222446590662, -0.018435165286064148, 0.04158865660429001]], [[-0.11611245572566986, -0.074210986495018, 0.26976460218429565], [-0.1840815544128418, 0.0600566565990448, 0.1133628636598587], [0.06863274425268173, -0.030734211206436157, -0.0917409360408783]], [[-0.0328594334423542, 0.047640442848205566, 0.17769855260849], [-0.0795382484793663, 0.11773327738046646, 0.3682686984539032], [0.0710350051522255, 0.2914732098579407, 0.1618608981370926]], [[0.09268532693386078, 0.3128569424152374, 0.16906945407390594], [0.24593177437782288, 0.26385611295700073, -0.02471129037439823], [0.10811016708612442, 0.10027191787958145, -0.05000770092010498]], [[0.05295533686876297, 0.09741931408643723, 0.02397196553647518], [-0.064304880797863, 0.05681145191192627, 0.02349880151450634], [-0.10872728377580643, 0.07321979105472565, -0.029770251363515854]], [[-0.10175197571516037, 0.03168322145938873, 0.016657594591379166], [-0.21203316748142242, -0.06846225261688232, -0.04489438235759735], [-0.04271256551146507, -0.06779229640960693, 0.08789044618606567]], [[0.04585834592580795, -0.18675734102725983, -0.13857129216194153], [-0.2156771570444107, -0.47789475321769714, -0.3921913504600525], [-0.2679309546947479, -0.15839038789272308, -0.17480161786079407]]], [[[-0.03239959478378296, -0.11060293763875961, -0.06372770667076111], [-0.2618509829044342, -0.12480267137289047, -0.10264965891838074], [-0.1412733793258667, -0.0515250563621521, 0.025714540854096413]], [[0.10444216430187225, 0.0348791629076004, 0.004522256087511778], [0.0006627907860092819, 0.06193089857697487, -0.0003580734191928059], [0.08397435396909714, -0.2579868733882904, -0.10745499283075333]], [[0.0601685605943203, 0.1550670713186264, 0.16242223978042603], [0.11666101962327957, 0.11423636227846146, 0.08509687334299088], [0.2138771265745163, -0.06342526525259018, -0.07015030086040497]], [[-0.20053322613239288, -0.15039493143558502, -0.1295243203639984], [0.021807577461004257, -0.005309244152158499, -0.16773554682731628], [0.10652011632919312, 0.05378415435552597, 0.016999240964651108]], [[0.07414442300796509, -0.10122009366750717, -0.04470706358551979], [0.0366893894970417, -0.023634545505046844, 0.04393283650279045], [-0.03428304195404053, 0.0074716731905937195, -0.11401044577360153]], [[0.08136636763811111, -0.046862728893756866, 0.06179729476571083], [-0.01801414042711258, 0.08260311186313629, 0.015246368013322353], [0.0404624380171299, -0.21050025522708893, -0.017040124163031578]], [[0.08534903824329376, 0.06568049639463425, -0.01877175271511078], [0.04292009025812149, 0.020639916881918907, -0.003981598187237978], [0.049491096287965775, -0.18096476793289185, -0.057032033801078796]], [[0.02342596836388111, -0.01853439211845398, -0.087555430829525], [-0.325287401676178, -0.206724151968956, -0.01591336354613304], [-0.10430500656366348, -0.0521278977394104, -0.0702805295586586]]], [[[-0.22426225244998932, -0.19273284077644348, -0.09563765674829483], [-0.35282987356185913, -0.15996359288692474, -0.006658364087343216], [-0.2429075837135315, -0.12917257845401764, -0.12811613082885742]], [[0.07783502340316772, 0.019060837104916573, -0.058136701583862305], [-0.08460212498903275, 0.01218598335981369, 0.10766582190990448], [0.130601704120636, -0.14854200184345245, -0.07498817145824432]], [[-0.060728151351213455, 0.07088208943605423, -0.12392260879278183], [-0.10732714831829071, 0.1129671111702919, -0.1100286915898323], [-0.15486232936382294, -0.0065373932011425495, 0.03771201893687248]], [[-0.05781535059213638, 0.06034551188349724, -0.0002773580781649798], [0.060310523957014084, 0.06204675883054733, -0.04631149396300316], [0.024983124807476997, 0.13646718859672546, -0.11723054200410843]], [[0.11361083388328552, 0.115509033203125, -0.07226181775331497], [0.00829515140503645, -0.010968387126922607, 0.07310802489519119], [0.04149904102087021, -0.018386125564575195, 0.10990766435861588]], [[0.08018592745065689, 0.1250755786895752, -0.04367571696639061], [0.032769810408353806, -0.1290830373764038, 0.05037296190857887], [0.12680451571941376, -0.12674131989479065, 0.0351429283618927]], [[-0.12406294047832489, 0.15089461207389832, 0.11258368194103241], [0.016015516594052315, -0.12824182212352753, 0.1917785108089447], [0.11452052742242813, -0.11491129547357559, -0.07518456131219864]], [[0.07508834451436996, -0.04209569841623306, -0.12496670335531235], [-0.062101561576128006, 0.060535408556461334, 0.15111897885799408], [-0.32459351420402527, -0.03452681377530098, 0.16201455891132355]]], [[[-0.11786384135484695, -0.29482993483543396, -0.022166745737195015], [-0.23138780891895294, -0.3874260485172272, -0.15897201001644135], [-0.24568790197372437, -0.23562294244766235, -0.13647039234638214]], [[0.08939311653375626, 0.14195935428142548, -0.030090875923633575], [0.0062265777960419655, 0.12441930919885635, 0.01007206179201603], [0.024051161482930183, -0.0257701575756073, -0.024166807532310486]], [[-0.05745047703385353, 0.048768747597932816, 0.0190803911536932], [-0.24022401869297028, 0.05799899250268936, -0.07082601636648178], [-0.1244330108165741, -0.060776952654123306, 0.04784608632326126]], [[-0.14470510184764862, -0.03712043538689613, -0.07332533597946167], [-0.1565159261226654, -0.0007907317485660315, 0.0380265936255455], [-0.20355789363384247, -0.07403791695833206, 0.07594313472509384]], [[0.1558944433927536, 0.09725917875766754, -0.05139327049255371], [0.159446582198143, 0.08842754364013672, -0.014329573139548302], [-0.06916636228561401, 0.00746829342097044, -0.061459608376026154]], [[0.1646633744239807, -0.012533915229141712, -0.11920777708292007], [-0.02223086915910244, 0.017236819490790367, -0.014682820066809654], [0.001479482394643128, 0.09404405951499939, 0.044151123613119125]], [[0.16646698117256165, 0.1692250519990921, 0.015393467620015144], [0.06366676837205887, 0.12235350161790848, -0.04809274151921272], [-0.011559112928807735, 0.1810770183801651, 0.10578615218400955]], [[-0.07425256818532944, -0.1697087287902832, -0.14479690790176392], [-0.22496597468852997, -0.2235735058784485, -0.3151445686817169], [-0.299070805311203, -0.06505955755710602, -0.08597069978713989]]], [[[-0.12343031913042068, 0.13310249149799347, 0.2812795042991638], [-0.05408419296145439, -0.1079057976603508, -0.03636695072054863], [-0.1355065107345581, -0.08908747881650925, -0.023404128849506378]], [[0.12804609537124634, -0.06916233897209167, 0.0051904586143791676], [-0.12500646710395813, 0.02376602403819561, -0.02846793457865715], [-0.13819630444049835, -0.13640795648097992, -0.0443342886865139]], [[-0.015761692076921463, 0.12719646096229553, 0.007831460796296597], [0.09799223393201828, 0.06542985141277313, 0.05359584838151932], [0.10180595517158508, 0.1226641908288002, 0.01723943091928959]], [[-0.00677556311711669, -0.0609462596476078, 0.06647622585296631], [-0.06720888614654541, -0.19633306562900543, -0.04776887223124504], [-0.1394006907939911, -0.1871156245470047, -0.2391965091228485]], [[0.06512542814016342, -0.011232445947825909, -0.14598464965820312], [-0.056262992322444916, 0.015489697456359863, -0.004809069912880659], [-0.19834773242473602, -0.03346323221921921, 0.0384429469704628]], [[0.1835644245147705, 0.10279173403978348, -0.11771780252456665], [-0.15126903355121613, 0.06992849707603455, 0.029784327372908592], [-0.17257477343082428, 0.11502542346715927, 0.006191335618495941]], [[0.1016954556107521, 0.1995217651128769, -0.10216599702835083], [-0.10127495229244232, 0.20138221979141235, 0.10308033227920532], [-0.1717887818813324, 0.07914035767316818, 0.26170220971107483]], [[-0.07368411868810654, 0.013303347863256931, 0.10498746484518051], [0.06062794104218483, -0.08160298317670822, 0.03240643069148064], [-0.01546655222773552, 0.14716970920562744, 0.2391534298658371]]], [[[0.05314533784985542, -0.06893063336610794, 0.05745812505483627], [0.05893557146191597, 0.08561594784259796, 0.15021665394306183], [0.03635147958993912, 0.13614898920059204, 0.1953863799571991]], [[0.03284786641597748, 0.013966668397188187, 0.16200467944145203], [0.04215981438755989, -0.060444775968790054, 0.04487228021025658], [-0.18804563581943512, -0.26701414585113525, -0.18390342593193054]], [[0.08512695878744125, -0.0002574873506091535, -0.03911082446575165], [0.0768226832151413, 0.116783007979393, 0.14392094314098358], [-0.16642886400222778, -0.024965334683656693, 0.006127489730715752]], [[0.014013177715241909, 0.05490053817629814, -0.08573964238166809], [0.04368885979056358, -0.0387369804084301, -0.1924545168876648], [-0.1209937334060669, -0.23045694828033447, -0.07086735218763351]], [[0.03640281781554222, 0.1314559131860733, 0.057675231248140335], [0.10481508821249008, 0.03445710986852646, 0.05161738768219948], [-0.2118268609046936, -0.22083987295627594, -0.07663333415985107]], [[-0.08030930161476135, 0.13466466963291168, -0.038157328963279724], [0.02931865118443966, 0.14674150943756104, 0.1074361503124237], [-0.12325785309076309, -0.0366181917488575, -0.09509404003620148]], [[0.1441304236650467, 0.003991889767348766, 0.10993527621030807], [-0.01626846194267273, 0.18078869581222534, -0.04210348799824715], [-0.3000299632549286, -0.19321897625923157, -0.20694194734096527]], [[0.0030909928027540445, -0.08943656831979752, -0.044993117451667786], [0.032190173864364624, 0.1969624012708664, 0.12312791496515274], [0.1374123990535736, 0.24156537652015686, 0.09296159446239471]]], [[[-0.001692816149443388, 0.15309245884418488, 0.13373836874961853], [0.14300620555877686, 0.13128924369812012, 0.1302010864019394], [-0.150192528963089, -0.032350800931453705, -0.050604403018951416]], [[0.23837007582187653, -0.07922741770744324, -0.36931300163269043], [-0.21745561063289642, -0.34339243173599243, 0.15806759893894196], [-0.22866025567054749, 0.10281547904014587, 0.1197168231010437]], [[0.1344577819108963, 0.23491086065769196, 0.12038633972406387], [0.2401215136051178, -0.0959644764661789, -0.32032856345176697], [-0.27465158700942993, -0.34330442547798157, 0.2511208653450012]], [[0.10459278523921967, 0.052895497530698776, 0.12714475393295288], [0.22706231474876404, -0.08654236793518066, -0.19186417758464813], [-0.10948273539543152, -0.046822380274534225, -0.15332956612110138]], [[0.05779391899704933, 0.055571138858795166, -0.24281811714172363], [0.01268731988966465, -0.05126418545842171, 0.13836230337619781], [-0.10336025804281235, 0.2341068685054779, 0.15985143184661865]], [[0.06458891928195953, -0.06992674618959427, -0.18925988674163818], [-0.08486248552799225, -0.4269073009490967, -0.07754618674516678], [-0.2850929796695709, 0.11150174587965012, 0.21924500167369843]], [[0.18747177720069885, -0.04202175885438919, -0.1850263625383377], [0.04690071567893028, -0.41735923290252686, -0.21009047329425812], [-0.24534031748771667, 0.0537254624068737, 0.22365589439868927]], [[-0.00230717402882874, 0.20883329212665558, -0.05319734290242195], [0.12252209335565567, 0.09157948195934296, -0.1746765673160553], [-0.15836463868618011, -0.1435869336128235, 0.018456174060702324]]]], "conv2_bias": [-0.08084265142679214, -0.11251752823591232, -0.14623959362506866, 0.05175303667783737, -0.012652553617954254, 0.028614221140742302, -0.002286026021465659, -0.1626678705215454, 0.007791249081492424, 0.08759593963623047, -0.02563074231147766, -0.061299655586481094, -0.012987072579562664, -0.12348067760467529, -0.09580781310796738, 0.06347080320119858], "fc_weight": [[0.0460631288588047, 0.0034814286045730114, 0.007455875631421804, 0.06612248718738556, 0.09258584678173065, -0.00020619806309696287, 0.06373068690299988, 0.030315421521663666, -0.14242906868457794, -0.06235110014677048, -0.043451279401779175, -0.07808953523635864, -0.014906558208167553, 0.03077520988881588, 9.494386904407293e-05, -0.060776639729738235, -0.022222375497221947, 0.009106002748012543, -0.020276367664337158, -0.07884961366653442, 0.019697772338986397, -0.016573112457990646, -0.17443367838859558, -0.18454118072986603, -0.07312746345996857, -0.046669624745845795, -0.029556162655353546, -0.03779388591647148, -0.05684090778231621, -0.06869291514158249, -0.09926515817642212, -0.029563553631305695, -0.010525481775403023, 0.03298746049404144, -0.02183392643928528, -0.023050911724567413, 0.014803744852542877, 0.03839971125125885, 0.07508888095617294, 0.016397327184677124, -0.02759547531604767, 0.027024520561099052, 0.0015200137859210372, 0.012016553431749344, 0.0047455825842916965, 0.015627415850758553, -0.03919137641787529, -0.01141001470386982, 0.02071315236389637, 0.057940270751714706, -0.02729187346994877, 0.01971823163330555, 0.0040024952031672, 0.00796299148350954, -0.0586012564599514, -0.02119651436805725, -0.005142207723110914, -0.028047887608408928, -0.059567198157310486, -0.03496594354510307, 0.03077581152319908, 0.029425928369164467, 0.013903887011110783, -0.02564445324242115, 0.007014407776296139, 0.001669939374551177, -0.01326166745275259, -0.04012974724173546, -0.01404603011906147, -0.060318343341350555, -0.021193791180849075, 0.00636198278516531, -0.046338580548763275, -0.23927757143974304, -0.1937837153673172, -0.08267264813184738, -0.03177006170153618, 0.03343873843550682, -0.08206581324338913, -0.013400612398982048, 0.01698896288871765, -0.00016669888282194734, -0.0013741160510107875, -0.15284614264965057, -0.051431652158498764, -0.0873367041349411, -0.02862069196999073, 0.06110881268978119, 0.07700861990451813, -0.017018379643559456, -0.033277254551649094, -0.021860318258404732, -0.20236533880233765, -0.29970577359199524, -0.07304024696350098, -0.051886722445487976, -0.026680676266551018, 0.021188359707593918, -0.013560441322624683, -0.02096995711326599, -0.039406437426805496, -0.024383068084716797, -0.009004304185509682, -0.004340774845331907, -0.006549856159836054, -0.027000345289707184, -0.061737678945064545, -0.009377491660416126, -0.015356529504060745, -0.015509948134422302, -0.009357158094644547, -0.011927464976906776, -0.03841323405504227, 0.009132826700806618, 0.014812365174293518, 0.05089827999472618, 0.006198574788868427, 0.03182865306735039, -0.0032085657585412264, -0.014870526269078255, 0.02237284556031227, -0.000352766684954986, -0.048700105398893356, -0.0915863960981369, 0.0025987434200942516, 0.013993748463690281, 0.0461302176117897, 0.007326980587095022, -0.056640032678842545, -0.023675277829170227, 0.024861501529812813, 0.049364104866981506, 0.00978064350783825, 0.015836015343666077, 0.006168458145111799, 0.053621262311935425, 0.02666681632399559, 0.007606022991240025, 0.05120890215039253, -0.03946371003985405, 0.01885240152478218, 0.01171552948653698, 0.02877967432141304, 0.006605095230042934, -0.023066658526659012, -0.09232304245233536, -0.09780044108629227, 0.010359402745962143, -0.024397173896431923, -0.07494287937879562, -0.04561088979244232, -0.025672227144241333, -0.026495827361941338, 0.02969420701265335, 0.0026308440137654543, -0.07267247140407562, -0.0785965546965599, -0.06230838969349861, -0.06897919625043869, 0.013362359255552292, 0.04392368718981743, -0.01885887421667576, 0.01011458970606327, -0.00212163501419127, 0.044960059225559235, -0.029773985967040062, -0.011676626279950142, 0.0313887782394886, -0.02933511696755886, 0.06187266483902931, 0.07085221260786057, 0.09928856790065765, -0.04334992915391922, 0.08341341465711594, 0.08534864336252213, 0.014969134703278542, 0.023120226338505745, 0.07824945449829102, -0.03761982545256615, -0.02648182213306427, 0.024189649149775505, 0.07934252172708511, 0.02381323091685772, -0.02590538002550602, -0.06065100058913231, -0.04097353294491768, 0.0033702501095831394, -0.012024955824017525, 0.0184696726500988, 0.021011481061577797, 0.015945421531796455, -0.011453712359070778, -0.0849786177277565, -0.05719088017940521, -0.106118343770504, -0.053219620138406754, -0.05822470784187317, -0.01642901822924614, -0.04305438697338104, 0.0013860806357115507, 0.013451258651912212, -0.018250375986099243, -0.03750181198120117, -0.069760762155056, -0.006330773234367371, -0.025503646582365036, 0.00023887003771960735, -0.012561417184770107, 0.010949721559882164, -0.04385349154472351, -0.03011944331228733, 0.04865340515971184, 0.02042108215391636, -0.03811032325029373, 0.025614837184548378, 0.016924412921071053, 0.019076980650424957, -0.021315094083547592, 0.05972091108560562, 0.06911014020442963, -0.07233572751283646, 0.013669938780367374, 0.05058285593986511, 0.0734144002199173, -0.028894511982798576, -0.013529281131923199, 0.08660879731178284, -0.03263866901397705, -0.06285001337528229, 0.02963149920105934, 0.03092856891453266, -0.06531234085559845, 0.007577772717922926, 0.09883271157741547, -0.01088268868625164, -0.02077983133494854, 0.0005397747154347599, -0.019805075600743294, -0.007824704982340336, -0.01645551435649395, -0.011991298757493496, 0.031194129958748817, -0.05133339390158653, -0.07004790008068085, -0.02733048051595688, 0.014354539103806019, -0.01508762501180172, -0.026613740250468254, -0.0322876013815403, -0.051358211785554886, -0.02919088676571846, 0.009804562665522099, 0.011428114026784897, -0.010002639144659042, -0.04985906183719635, -0.08037755638360977, -0.02899705246090889, 0.018409064039587975, 0.06156487762928009, 0.001359993009828031, -0.06247904896736145, 0.047780636698007584, 0.0058162328787148, 0.013143033720552921, 0.04685778170824051, 0.04079676792025566, 0.020242394879460335, 0.009889868088066578, 0.07004876434803009, 0.10039226710796356, -0.06985674053430557, -0.014506279490888119, 0.020682061091065407, -0.0056657129898667336, 0.05267827585339546, 0.054663874208927155, 0.09186328202486038, -0.007531189825385809, 0.05129993334412575, 0.0483919233083725, 0.04631172493100166, 0.040692947804927826, 0.002212348161265254, -0.03417722508311272, 0.009363269433379173, -0.0450848713517189, 0.024785391986370087, 0.002042715437710285, 0.007174205966293812, 0.01969253271818161, -0.05373072996735573, -0.046598393470048904, -0.042246486991643906, -0.026271531358361244, 0.005364467389881611, -0.004621231462806463, -0.03284851461648941, -0.0175448227673769, 0.027056237682700157, -0.001664365059696138, -0.042158808559179306, -0.027268361300230026, 0.02504059672355652, -0.04848284274339676, -0.024978743866086006, 0.05315416306257248, 0.04360625892877579, 0.019965846091508865, -0.0011968273902311921, 0.027787482365965843, 0.01810537464916706, 0.013599404133856297, 0.019702741876244545, 0.04453020170331001, 0.0015802817652001977, 0.049914855509996414, 0.014415293000638485, 0.03196117281913757, -0.09354985505342484, 0.039367444813251495, 0.047444213181734085, 0.02507833018898964, -0.030659589916467667, 0.015169069170951843, 0.05567692592740059, -0.08624260872602463, -0.05058113485574722, 0.0017818000633269548, 0.008682763203978539, 0.019971709698438644, -0.004963455256074667, 0.03511955589056015, -0.05378452315926552, -0.017080388963222504, -0.018552668392658234, -0.01920260861515999, 0.01205932442098856, -0.012541144154965878, 0.004646105691790581, 0.005122694186866283, 0.00636864872649312, -0.010427201166749, -0.014552478678524494, -0.016467854380607605, -0.02217983454465866, -0.0025540662463754416, 0.024095909669995308, -0.047666940838098526, -0.04792652279138565, -0.028124064207077026, 0.003053345251828432, -0.023344051092863083, -0.0028186726849526167, 0.0316869355738163, 0.07246223092079163, 0.017240332439541817, 0.006984070409089327, 0.01226101815700531, 0.029281720519065857, 0.03745616227388382, 0.004428483080118895, 0.01702314056456089, -0.00978696160018444, 0.030301533639431, -0.015999114140868187, -0.08935350179672241, -0.08534430712461472, -0.11972780525684357, -0.1560017317533493, -0.09156390279531479, 0.04937848448753357, -0.060510918498039246, -0.10473424941301346, -0.006568123120814562, 0.03133208677172661, -0.07114618271589279, -0.17341819405555725, -0.07771860808134079, -0.034432005137205124, 0.03982571139931679, 0.02475220523774624, 0.03967687860131264, -0.09438855946063995, -0.22209270298480988, -0.09918911010026932, 0.011089514009654522, 0.010760006494820118, -0.020805444568395615, -0.08430632948875427, -0.17239175736904144, -0.04446610063314438, -0.05489618331193924, 0.00042045125155709684, 0.028424203395843506, -0.038367945700883865, 0.020738516002893448, 0.05365735664963722, -0.012855914421379566, -0.008249842561781406, -0.03335629031062126, -0.008576356805860996, -0.019987773150205612, -0.017273781821131706, -0.028684154152870178, -0.01950262300670147, -0.0364735871553421, -0.07212711125612259, 0.022287758067250252, -0.015031932853162289, -0.02051306702196598, -0.03708890825510025, -0.02938922308385372, -0.01576896943151951, 0.0008754227310419083, -0.021985836327075958, -0.016136031597852707, -0.16115397214889526, -0.09966906905174255, 0.055847492069005966, 0.012818190269172192, -0.017538700252771378, 0.013187848031520844, -0.013458168134093285, -0.05894628167152405, -0.01982407085597515, -0.000599270046222955, 0.013920621946454048, -0.013234376907348633, -0.00199063285253942, 0.045192502439022064, -0.002637225668877363, -0.009318890981376171, 0.008754512295126915, -0.021000225096940994, -0.08266958594322205, -0.10313631594181061, -0.08630962669849396, 0.01949538104236126, 0.00828602071851492, -0.04291519895195961, 0.012298410758376122, -0.007876312360167503, -0.0720134824514389, -0.010005460120737553, 0.009268726222217083, -0.03447329252958298, -0.04439201578497887, -0.04411350190639496, -0.07400333136320114, -0.0016862974734976888, 0.020858202129602432, 0.029562853276729584, 0.043386995792388916, -0.01696157455444336, -0.02452986314892769, -0.04001084342598915, -0.009134410880506039, 0.039969928562641144, 0.008546952158212662, 0.0011682185577228665, 0.026151826605200768, -0.021929191425442696, 0.04780811443924904, 0.09258671849966049, 0.029152829200029373, -0.09342040121555328, -0.01807563193142414, 0.04692237079143524, 0.03355361893773079, 0.007890927605330944, 0.05184878408908844, 0.054825227707624435, -0.05098213255405426, 0.09551100432872772, 0.08296099305152893, -0.029057588428258896, 0.047003697603940964, 0.03819277882575989, 0.003111412050202489, -0.0337148979306221, -0.010375939309597015, -0.015496470965445042, -0.04473450407385826, 0.042360302060842514, -0.031514447182416916, -0.013754401355981827, -0.14919179677963257, -0.18370698392391205, -0.15874439477920532, 0.023549983277916908, -0.028875865042209625, -0.00447144964709878, -0.049632493406534195, -0.08208033442497253, -0.1095738410949707, -0.04123156890273094, 0.033455438911914825, -0.02564428746700287, -0.08529125154018402, 0.00696621323004365, 0.0012544861529022455, -0.06177099794149399, -0.05236374959349632, 0.0055320183746516705, -0.042320676147937775, -0.04474524408578873, 0.007402594666928053, 0.06810175627470016, -0.04079759865999222, -0.028805354610085487, 0.016786959022283554, 0.03206260874867439, 0.017370019108057022, 0.04884813353419304, 0.012565952725708485, -0.09539007395505905, 0.06430089473724365, 0.08770686388015747, 0.011540688574314117, 0.056608714163303375, 0.006326612550765276, -0.04448800906538963, -0.013901953585445881, 0.026689983904361725, 0.09620825201272964, -0.0417860746383667, 0.027794111520051956, 0.018245022743940353, 0.00814806204289198, -0.03481493145227432, -0.02155550941824913, 0.008564316667616367, -0.04093512147665024, -0.017637694254517555, -0.027283983305096626, 0.05715284124016762, 0.01078508049249649, -0.060496676713228226, -0.048087701201438904, 0.0027863578870892525, -0.02334933541715145, -0.04448423162102699, -0.03934039548039436, 0.004666998982429504, -0.0041785468347370625, 0.025502871721982956, -0.004142673686146736, -0.10176805406808853, -0.021191589534282684, 0.0018588181119412184, 0.04303055629134178, 0.04731793329119682, 0.05345451086759567, 0.030143102630972862, 0.01803649589419365, -0.007570697460323572, 0.11030102521181107, 0.019855786114931107, 0.03632170706987381, 0.07089121639728546, 0.020185284316539764, -0.022410210222005844, 0.0027550237718969584, 0.06278528273105621, 0.014365963637828827, 0.06379034370183945, 0.04011641442775726, -0.018323983997106552, 0.0035260384902358055, 0.02179558575153351, -0.06230857968330383, -0.034430380910634995, 0.051357369869947433, 0.044455334544181824, 0.006182324141263962, 0.012078741565346718, 0.05737827718257904, -0.05454547703266144, -0.05133093148469925, -0.024237504228949547, 0.024010412395000458, -0.017879387363791466, 0.01612863689661026, 0.02762143686413765, -0.0019244905561208725, -0.029870301485061646, -0.05163949355483055, -0.038275640457868576, 0.02476949617266655, -0.035352982580661774, -0.06263978034257889, -0.09201084077358246, -0.04821757972240448, -0.03125631809234619, -0.0475073903799057, -0.04628193750977516, 0.020201869308948517, -0.019096942618489265, -0.0010324799222871661, 0.06218995153903961, -0.002967182546854019, -0.003147701732814312, -0.06328776478767395, -0.008330333977937698, 0.01649937406182289, 0.036450646817684174, 0.04584568366408348, 0.05969297140836716, 0.02976108156144619, -0.07346031814813614, 0.020998956635594368, 0.025398138910531998, -0.062148552387952805, -0.03553898632526398, 0.08389976620674133, 0.055193305015563965, -0.03639679402112961, 0.020589491352438927, 0.03736202046275139, -0.043711304664611816, -0.08529023826122284, -0.005897324066609144, 0.056938108056783676, 0.004228804726153612, 0.041378289461135864, 0.0834549218416214, -0.004906936082988977, -0.017601413652300835, -0.010677426122128963, -0.01589173451066017, 0.0003567681123968214, -0.021207788959145546, 0.04301108047366142, 0.0031875327695161104, -0.017506727948784828, -0.06343155354261398, -0.03191780298948288, -0.004290711600333452, 0.011557460762560368, -0.02577253058552742, 0.017352182418107986, 0.011832070536911488, 0.023865461349487305, 0.03120257332921028, 0.02535405568778515, -0.06265543401241302, -0.08635253459215164, 0.04334550350904465, 0.046130016446113586, 0.03914249688386917, -0.01897355541586876, -0.020364388823509216, -0.05030537024140358, -0.027822883799672127, 0.058936215937137604, 0.06972962617874146, 0.044320594519376755, -0.023145271465182304, -0.02189396321773529, 0.03341340273618698, -0.030893070623278618, -0.09877147525548935, -0.029235215857625008, 0.02282411977648735, -0.001201934413984418, -0.039820991456508636, 0.020914005115628242, 0.03925832360982895, -0.09431947767734528, -0.09871946275234222, 0.019332662224769592, 0.037424035370349884, 0.0374131016433239, -0.017205681651830673, 0.032658182084560394, 0.05545080825686455, 0.006375797558575869, -0.02391388639807701, -0.013610663823783398, -0.010367283597588539, 0.033492669463157654, -0.003232373157516122, 0.013403909280896187, -0.031786806881427765, -0.047479111701250076, -0.03385286405682564, 0.007646672427654266, 0.033058151602745056, 0.03405775502324104, 0.1062358170747757, 0.03545696660876274, -0.006522615440189838, 0.03707267343997955, 0.0005416793283075094, -0.10293678939342499, -0.14095035195350647, 0.007123042829334736, -0.044430073350667953, -0.11022550612688065, -0.04923019930720329, 0.000726238009519875, -0.09561024606227875, -0.08660447597503662, 0.03955676034092903, 0.04094752296805382, -0.059272173792123795, -0.08631366491317749, 0.0633469969034195, -0.1293632984161377, -0.09576155245304108, -0.054756805300712585, -0.09652341157197952, -0.012129833921790123, -0.05340246111154556, 0.019449250772595406, 0.0016717027174308896, -0.04977237060666084, -0.05695226043462753, 0.04688745364546776, 0.0833965316414833, 0.04340687021613121, 0.018385479226708412, 0.0005952783394604921, 0.04612698033452034, 0.0573507696390152, 0.030479473993182182, 0.05222171172499657, 0.05246373265981674, -0.021895909681916237, -0.018959244713187218, 0.032635606825351715, 0.05346439406275749, -0.039296954870224, -0.03736881911754608, -0.046011101454496384, 0.025791896507143974, 0.04389593005180359, 0.012787177227437496, 0.011180799454450607, 0.029605278745293617, 0.05193297192454338, 0.05380886048078537, 0.06877059489488602, 0.012877221219241619, 0.018961027264595032, -0.026639048010110855, -0.05844193324446678, -0.1588505506515503, -0.03037876822054386, 0.08327780663967133, 0.006492637563496828, 0.05269160121679306, -0.2039540410041809, -0.11643251776695251, -0.17876768112182617, -0.07593098282814026, 0.044266462326049805, -0.00756586529314518, -0.045586492866277695, 0.005680793430656195, -0.07517872750759125, -0.039493974298238754, -0.014118512161076069, 0.00045657510054297745, -0.12916609644889832, -0.06314723938703537, 0.01114912424236536, 0.07582523673772812, 0.1129937618970871, 0.0543990321457386, -0.08113604038953781, -0.149165540933609, -0.0027925814501941204, 0.05884662643074989, 0.05547814443707466, 0.01509839203208685, 0.07342231273651123, -0.005107132252305746, -0.022896230220794678, -0.02714143879711628, -0.029996808618307114, -0.05034611374139786, -0.03804728016257286, -0.008550498634576797], [0.033383212983608246, 0.032567236572504044, 0.0426822192966938, 0.0633191466331482, 0.05510617792606354, 0.04668431356549263, 0.003253541886806488, 0.07999354600906372, -0.002125272061675787, -0.08502981066703796, -0.11229442059993744, -0.18799784779548645, -0.11915451288223267, -0.04095722362399101, -0.008379927836358547, -0.017195073887705803, -0.014708150178194046, -0.13954637944698334, -0.10993257164955139, -0.08938034623861313, 0.014521350152790546, -0.02797895111143589, 0.04461381584405899, -0.07291703671216965, -0.0722404345870018, -0.046394266188144684, -0.053500235080718994, 0.02212774194777012, -0.010882575996220112, -0.032563466578722, -0.0467921681702137, -0.10162941366434097, -0.06006772071123123, -0.028847817331552505, 0.03315488621592522, 0.05411404371261597, 0.029161017388105392, -0.053202029317617416, -0.03573034703731537, 0.09187246859073639, 0.05421570688486099, 0.04415963217616081, 0.04428974539041519, 0.05833062902092934, 0.015943752601742744, -7.970228034537286e-05, 0.0047766463831067085, 0.058334771543741226, -0.01595187559723854, 0.04390420764684677, -0.027415409684181213, -0.024723032489418983, -0.07038667798042297, -0.06761886924505234, -0.04957079887390137, -0.04561623930931091, 0.038785096257925034, -0.01735113002359867, -0.06873467564582825, -0.08848166465759277, -0.12439452856779099, -0.06975220888853073, -0.04025916010141373, -0.02808786928653717, 0.0054546017199754715, -0.014376928098499775, 0.015356231480836868, 0.0078014773316681385, -0.13491065800189972, -0.03470586985349655, -0.07841143757104874, -0.0012372203636914492, -0.07405895739793777, -0.07898330688476562, -0.11904823780059814, -0.12160144001245499, -0.011136258952319622, -0.014724766835570335, 0.04294668510556221, -0.03446068987250328, -0.07017992436885834, -0.025263551622629166, 0.07822437584400177, 0.025941863656044006, 0.07652851194143295, 0.07367725670337677, 0.015432258136570454, -0.08142363280057907, 0.021804826334118843, 0.002852917881682515, -0.049175772815942764, -0.020829059183597565, -0.14743788540363312, -0.08419420570135117, -0.016027063131332397, -0.1017414927482605, -0.03015066124498844, 0.012411356903612614, 0.07285062968730927, 0.05277214199304581, 0.029742063954472542, 0.08242405205965042, 0.07625504583120346, 0.058679793030023575, 0.04792584478855133, 0.05373498797416687, 0.01246792171150446, -0.06958147883415222, -0.09766831994056702, -0.01674148254096508, -0.043676432222127914, -0.005525769665837288, -0.01611427031457424, 0.013275654055178165, -0.08203375339508057, -0.056891050189733505, 0.0287189781665802, -0.018140535801649094, -0.027106136083602905, -0.046771105378866196, -0.0024397880770266056, -0.10583194345235825, -0.013886848464608192, -0.0005521809798665345, -0.05947604030370712, -0.023013830184936523, -0.02527482435107231, -0.0660504698753357, -0.028405945748090744, -0.046601470559835434, -0.08799245208501816, -0.03817053139209747, 0.037368275225162506, 0.037788841873407364, -0.015457803383469582, 0.02521413378417492, 0.020616592839360237, -0.011030747555196285, 0.012833493761718273, -0.001069242018274963, 0.03809025138616562, -0.023485342040657997, 0.019606076180934906, -0.024908719584345818, 0.028000807389616966, -0.032547760754823685, 0.032872579991817474, 0.008489446714520454, 0.05915671959519386, 0.07969500124454498, 0.11094645410776138, 0.06711944192647934, 0.006111627910286188, -0.0006383942090906203, 0.03104417957365513, 0.017694856971502304, -0.022246597334742546, 0.1898326873779297, 0.08026900142431259, 0.03176359087228775, 0.03260207176208496, 0.0556463859975338, -0.046774107962846756, -0.13705341517925262, -0.015416703186929226, 0.06360339373350143, 0.025047466158866882, -0.01334843784570694, 0.004453942179679871, 0.05810484662652016, -0.006761379074305296, 0.06830921769142151, 0.08858862519264221, -0.045609090477228165, 0.0015110716922208667, 0.049211859703063965, 0.05571028217673302, 0.0949338749051094, 0.032182857394218445, -0.03692378103733063, -0.0814627856016159, -0.016442084684967995, 0.049045488238334656, 0.08563505858182907, 0.1525619924068451, 0.025621086359024048, -0.04388783499598503, -0.01355558168143034, -0.03035772778093815, 0.07450876384973526, 0.033005066215991974, -0.05043216794729233, -0.02139335311949253, 0.008256846107542515, 0.04433213174343109, 0.03181023523211479, 0.07055682688951492, 0.007415559608489275, 0.0416204035282135, 0.062916100025177, 0.014063996262848377, 0.06628714501857758, 0.0032146628946065903, 0.014278282411396503, 0.011565832421183586, -0.03157227113842964, 0.04571056738495827, -0.0037528430111706257, 0.02479662001132965, -0.04846775159239769, 0.05398973822593689, -0.04675770550966263, -0.0827123150229454, 0.08407844603061676, -0.011342217214405537, -0.03102373145520687, -0.07213075459003448, 0.03631328046321869, -0.04123646020889282, -0.10948967188596725, 0.07218756526708603, -0.044516995549201965, -0.059609487652778625, -0.01812756434082985, -0.008431794121861458, -0.0017946441657841206, -0.07877682149410248, 0.06804908066987991, -0.026090677827596664, -0.04854708909988403, 0.005199840757995844, -0.012073284946382046, -0.061187904328107834, -0.06188823655247688, 0.07178724557161331, -0.051813483238220215, 0.02869895100593567, -0.012679505161941051, 0.0046316394582390785, 0.04631685093045235, 0.03973618149757385, 0.01950415037572384, 0.05617670714855194, 0.008277684450149536, -0.005504876375198364, 0.016973478719592094, 0.0067387912422418594, 0.05285970866680145, 0.03369256481528282, 0.002246804302558303, 0.0022273159120231867, 0.03049611486494541, 0.015900803729891777, 0.039092522114515305, 0.07371997833251953, 0.14995238184928894, 0.009719920344650745, -0.03306487202644348, 0.029447108507156372, 0.009653620421886444, 0.018298625946044922, 0.058371350169181824, 0.16040025651454926, 0.0945272296667099, 0.0210210382938385, 0.02384577877819538, 0.007291060406714678, 0.06383191794157028, 0.08634720742702484, 0.08653058111667633, 0.05414063483476639, -0.05604911968111992, 0.008654658682644367, 0.06907467544078827, 0.0019003356574103236, 0.1287963092327118, 0.057259686291217804, 0.03611323609948158, -0.051819249987602234, 7.992064638528973e-06, 0.0412733219563961, 0.03585905581712723, 0.214352086186409, 0.08057381957769394, -0.007938746362924576, 0.046458885073661804, 0.009299070574343204, 0.001990551594644785, 0.017044847831130028, 0.17738652229309082, 0.029784999787807465, 0.0443163625895977, 0.04361359030008316, -0.00342847709544003, 0.010207017883658409, -0.025281842797994614, 0.07166668027639389, 0.06059235706925392, -0.008387850597500801, 0.027301913127303123, -0.008378099650144577, 0.024672307074069977, -0.04072912037372589, -0.008084902539849281, -0.008020457811653614, -0.014503094367682934, 0.018217094242572784, -0.0005246606306172907, 0.032298747450113297, -0.016339227557182312, -0.04428800195455551, 0.07706113159656525, -0.009855563752353191, -0.006154168397188187, -0.017004935070872307, 0.022668780758976936, -0.041985105723142624, -0.030347073450684547, -0.0005384659161791205, 0.010213980451226234, -0.06553284078836441, -0.026580030098557472, -0.011471506208181381, -0.05431555584073067, -0.03771596401929855, 0.037061821669340134, -0.05462164804339409, -0.03621269389986992, 0.03116324357688427, 0.040872033685445786, 0.025617647916078568, 0.038491375744342804, 0.07099089026451111, 0.026159802451729774, 0.04912996664643288, 0.03765268251299858, 0.030396178364753723, 0.02123129740357399, -0.047067791223526, -0.02130838856101036, 0.004579721484333277, 0.007453229743987322, 0.035219814628362656, 0.020316610112786293, 0.04919144883751869, 0.027521705254912376, 0.03608280047774315, -0.011319199576973915, -0.031519051641225815, -0.04271552339196205, -0.002686315681785345, 0.020606903359293938, -0.031092606484889984, -0.03243493288755417, -0.14436618983745575, -0.049937792122364044, -0.060159213840961456, 0.05035698786377907, 0.08663785457611084, 0.056293755769729614, 0.03457501158118248, -0.11325222998857498, -0.11348072439432144, -0.009616457857191563, -0.04321397840976715, -0.025126904249191284, -0.06701450794935226, -0.12431401759386063, -0.1506958156824112, -0.12176359444856644, 0.004551251884549856, 0.09602194279432297, 0.0841323509812355, 0.07246541231870651, -0.17070692777633667, 0.019440805539488792, 0.04313838481903076, 0.05851827561855316, -0.0013351973611861467, 0.06748839467763901, 0.02278263121843338, 0.021886618807911873, 0.17365893721580505, 0.07901880145072937, -0.0032142121344804764, -0.005666153039783239, -0.025498919188976288, 0.13802099227905273, 0.09012667089700699, 0.058931782841682434, 0.08738020807504654, 0.014601141214370728, 0.03413502126932144, -0.0011857956415042281, -0.07991041988134384, 0.022461866959929466, 0.006481492891907692, 0.012637029401957989, 0.0006413228693418205, -0.011562181636691093, -0.03341613709926605, -0.05554340407252312, -0.11563120037317276, -0.07224816083908081, -0.009838542900979519, -0.03832770884037018, -0.034425556659698486, 0.01724812760949135, -0.10549139976501465, -0.040343042463064194, -0.05290500074625015, -0.05882193148136139, -0.01698658987879753, 0.06906136125326157, 0.0010466983076184988, -0.03358888253569603, -0.11232731491327286, 0.004149687476456165, -0.026977088302373886, 0.007780564948916435, -0.021191220730543137, -0.008034983649849892, -0.07767125964164734, -0.04398101195693016, -0.01563681848347187, 0.029716454446315765, 0.032142575830221176, 0.05562061071395874, 0.018066825345158577, -0.05577506497502327, 0.01089817937463522, 0.0340648852288723, 0.032913628965616226, 0.00835457257926464, 0.010354322381317616, -0.04991908371448517, -0.052885428071022034, -0.03509269654750824, -0.04104752093553543, -0.001181817497126758, 0.004660704173147678, 0.009259260259568691, -0.03063681535422802, 0.009341320022940636, 0.020759038627147675, 0.025814710184931755, 0.012644905596971512, 0.03815928474068642, 0.008717147633433342, -0.06778363138437271, -0.00038812117418274283, 0.01760585606098175, -0.004601903725415468, 0.07160118967294693, 0.04859113320708275, 0.010030923411250114, -0.061505332589149475, -0.12669292092323303, 0.057586539536714554, -0.020224278792738914, -0.013722158037126064, -0.012263105250895023, 0.010324956849217415, -0.022507470101118088, -0.03767850250005722, 0.033118970692157745, -0.061577461659908295, -0.07739859074354172, 0.046944510191679, -0.016166064888238907, -0.03441844508051872, -0.05882073566317558, 0.02400032989680767, -0.0938742384314537, -0.10399626195430756, 0.022574882954359055, -0.01104237325489521, -0.05086934193968773, -0.01624894142150879, -0.02822132222354412, -0.08062208443880081, -0.03281339630484581, 0.01628589816391468, 0.03797870874404907, 0.016354307532310486, 0.013403285294771194, 0.08229482918977737, 0.06655525416135788, 0.012155285105109215, 0.024034295231103897, 0.0236443392932415, 0.045639511197805405, 0.009563921019434929, 0.13648098707199097, 0.13033545017242432, -0.008942059241235256, 0.0027220090851187706, 0.021867403760552406, -0.03366558998823166, -0.10363117605447769, -0.0464043989777565, 0.04080808162689209, 0.0014745767693966627, -0.03318363428115845, -0.006062144413590431, -0.037031225860118866, -0.030656937509775162, -0.06496918201446533, 0.08680883049964905, -0.036893878132104874, -0.005583860911428928, 0.05215374007821083, 0.014117376878857613, -0.01226482167840004, 0.03546396642923355, 0.029717737808823586, -0.015622005797922611, -0.03474525734782219, 0.041836272925138474, -0.0433281771838665, 0.015181654132902622, 0.022237442433834076, -0.05162834748625755, -0.053715985268354416, -0.01357835903763771, 0.059512194246053696, 0.0348808616399765, -0.023608965799212456, 0.05379289761185646, 0.018074877560138702, -0.02777756191790104, -0.06998810172080994, 0.06980962306261063, -0.0005719389882870018, 0.013647557236254215, -0.018631478771567345, 0.019400227814912796, -0.03249002993106842, -0.015842877328395844, 0.04573407024145126, -0.0072760931216180325, 0.004269191529601812, 0.03428025543689728, 0.037164460867643356, 0.026443341746926308, 0.019454045221209526, 0.003863763064146042, 0.06129050254821777, -0.04687364399433136, -0.06890922784805298, 0.05513374134898186, -0.0040959580801427364, 0.03259752318263054, 0.012984729371964931, -0.020764246582984924, -0.08377072960138321, -0.11121924966573715, 0.0502711646258831, 0.017236320301890373, 0.011354781687259674, 0.03000331111252308, -0.02006780356168747, -0.10156615078449249, 0.00427023321390152, 0.10100626945495605, -0.051040031015872955, 0.03440508991479874, -0.0035773736890405416, -0.10439416021108627, -0.12007419764995575, 0.02321171946823597, -0.0170715544372797, -0.046121109277009964, 0.02275492064654827, 0.02562747150659561, 0.01758483611047268, -0.023311670869588852, 0.04528350010514259, 0.010024139657616615, 0.008263155817985535, 0.002740902127698064, 0.012164905667304993, 0.04675137624144554, 0.029577450826764107, 0.01009050291031599, 0.08867831528186798, 0.02025016024708748, 0.007669106125831604, 0.01931421086192131, 0.041513796895742416, 0.004006729461252689, 0.05919007956981659, -0.05483535677194595, -0.009042656980454922, -0.01665882021188736, 0.03699333965778351, -0.0384436771273613, 0.046824488788843155, 0.01932162046432495, 0.09060250222682953, 0.006684626452624798, 0.03951960802078247, 0.014926042407751083, -0.01473620068281889, -0.05701608210802078, 0.031735632568597794, 0.07321926951408386, -0.007887160405516624, -0.01941828243434429, 0.011696889996528625, -0.03278760239481926, -0.10608496516942978, 0.08539275825023651, 0.053866636008024216, -0.007198197301477194, -0.03610362112522125, 0.0025832829996943474, -0.10707580298185349, -0.053909774869680405, 0.08454157412052155, 0.018854254856705666, -0.04145178198814392, -0.0074010128155350685, -0.011572128161787987, -0.07876021414995193, -0.002015823032706976, 0.10260964930057526, -0.013161641545593739, 0.0038029332645237446, 0.041757676750421524, 0.027870232239365578, -0.007527780253440142, 0.010420963168144226, -0.02780531719326973, 3.519042729749344e-05, 0.0258822999894619, 0.034352581948041916, 0.07668425142765045, 0.01918621174991131, 0.03638754412531853, 0.03925358131527901, 0.06914779543876648, 0.03402259573340416, 0.025400495156645775, 0.019299054518342018, 0.02092416025698185, -0.01871682144701481, -0.06126440316438675, -0.022846126928925514, 0.0013251254567876458, -0.05980999395251274, -0.005441490560770035, 0.005737767554819584, -0.08810516446828842, -0.0017842671368271112, -0.03164010867476463, -0.0010508595732972026, -0.024483177810907364, 0.016816088929772377, -0.03945643827319145, -0.08423494547605515, -0.02211371250450611, 0.023991696536540985, -0.08270462602376938, -0.08116190880537033, 0.03639857843518257, -0.07893511652946472, -0.1275808960199356, -0.009353967383503914, 0.015154493972659111, -0.08126647770404816, 0.03160584717988968, 0.09615364670753479, -0.004057740792632103, -0.05673067644238472, 0.05743267759680748, 0.03254162520170212, 0.02773047238588333, 0.008535392582416534, 0.02385728806257248, 0.020174143835902214, -0.04826752096414566, 0.02260916493833065, 0.03059828095138073, -0.05075860023498535, -0.09666049480438232, 0.042426154017448425, 0.04142816737294197, 0.02607504278421402, 0.024834120646119118, 0.05374333634972572, 0.023172227665781975, 0.024126453325152397, 0.061883293092250824, -0.0006835131789557636, -0.01855650171637535, -0.1447768360376358, -0.15991857647895813, -0.06026558205485344, -0.001722743734717369, -0.034692004323005676, -0.02848486788570881, -0.025061439722776413, -0.09160318225622177, -0.12434380501508713, -0.0663946345448494, 0.019876554608345032, -0.005239918362349272, 0.019006002694368362, -0.07906893640756607, -0.1264863759279251, -0.04322235658764839, -0.0009539034217596054, -0.007825476117432117, -0.031700316816568375, -0.0853281319141388, -0.07451683282852173, -0.04570886120200157, -0.01616375520825386, -0.09970343858003616, 0.032953936606645584, 0.04789573699235916, 0.06287460774183273, -0.05016297101974487, 0.00036289956187829375, -0.023767642676830292, 0.029324961826205254, 0.06144062802195549, 0.03437946364283562, -0.012015546672046185, -0.025748923420906067, -0.018474090844392776, 0.058235783129930496, 0.07346682995557785, -0.021135464310646057, 0.025252651423215866, 0.0025454259011894464, 0.10193712264299393, 0.07966864854097366, 0.130978524684906, 0.023169709369540215, 0.051369260996580124, 0.05371561273932457, -0.052559640258550644, -0.0900963619351387, 0.060295820236206055, 0.14428932964801788, 0.02200518548488617, 0.013813619501888752, 0.038070131093263626, -0.04977855458855629, 0.047526340931653976, 0.13235875964164734, -0.08832883834838867, 0.03213190287351608, -0.002203465672209859, -0.004677040968090296, -0.03932773694396019, 0.002420803066343069, -0.04736662283539772, -0.0287111084908247, 0.00484538683667779, 0.008376317098736763, 0.05885779857635498, 0.054917141795158386, -0.0013047761749476194, 0.09871847182512283, 0.023295510560274124, -0.14129453897476196, 0.035600531846284866, 0.1083739846944809, 0.0028143657837063074, 0.03640103340148926, -0.06669550389051437, -0.11427497863769531, 0.023891739547252655, 0.014469657093286514, 0.02639930322766304, 0.03967578336596489, 0.06067056581377983, 0.012380513362586498, 0.044459935277700424, 0.009782741777598858, -0.008030030876398087], [-0.005728259216994047, -0.017716066911816597, 0.03797491639852524, 0.00618736632168293, -0.0231684111058712, -0.012691986747086048, -0.03316880390048027, 0.03914695605635643, 0.0940530002117157, 0.0470927469432354, 0.025244994089007378, 0.024519167840480804, -0.06563547253608704, -0.09583742916584015, 0.04623749479651451, 0.08735277503728867, 0.08442666381597519, 0.039642684161663055, -0.02984810434281826, -0.1637921780347824, -0.10749397426843643, -0.012695332989096642, 0.021776875481009483, 0.014107470400631428, -0.09019526094198227, -0.15432782471179962, -0.0360233373939991, 0.08720943331718445, 0.028275124728679657, -0.058861762285232544, -0.05551532283425331, -0.03926213085651398, 0.039499443024396896, 0.1740846484899521, 0.20109869539737701, 0.030132954940199852, 0.001802520826458931, 0.04004894196987152, -0.0047220876440405846, 0.075409896671772, 0.10226525366306305, 0.03232961148023605, -0.03080594912171364, 0.012995476834475994, -0.0019670063629746437, -0.0021554843988269567, 0.010629769414663315, 0.013293389230966568, -0.08171249181032181, -0.019045524299144745, -0.011280621401965618, 0.061498288065195084, 0.03255199268460274, 0.05382572486996651, -0.011304512619972229, -0.07849688827991486, -0.07557370513677597, -0.026250120252370834, -0.02996363677084446, -0.0003985620860476047, 0.024112999439239502, -0.07648977637290955, -0.09493400901556015, -0.040230706334114075, -0.010538165457546711, -0.00795955304056406, -0.08669307082891464, -0.11549489200115204, -0.10009920597076416, -0.010692440904676914, 0.036307111382484436, 0.09671659767627716, 0.08677496016025543, 0.05257042124867439, -0.03359420970082283, -0.03660869225859642, 0.11388146877288818, 0.019376495853066444, 0.028722019866108894, 0.019756881520152092, 0.03918192535638809, 0.03255324438214302, 0.06094769760966301, 0.112721286714077, 0.007462469860911369, -0.05229901149868965, -0.08786078542470932, 0.011032501235604286, 0.06270425021648407, 0.12066859751939774, 0.08156581968069077, -0.08465167135000229, -0.2655419707298279, -0.12179304659366608, 0.044454194605350494, 0.036672405898571014, 0.08247752487659454, -0.04851824417710304, -0.04138750582933426, -0.02548704296350479, 0.011080830357968807, 0.057565558701753616, 0.02657560631632805, -0.04366190731525421, -0.0014411043375730515, -0.01825910434126854, 0.014316670596599579, -0.014425557106733322, 0.03195110708475113, 0.0163799487054348, -0.03756004571914673, -0.03717732056975365, 0.04113537073135376, 0.030565006658434868, 0.019085032865405083, 0.002127584535628557, -0.05946456268429756, -0.05426597222685814, -0.05012953653931618, -0.06583861261606216, 0.020829565823078156, -0.027562975883483887, -0.0534261055290699, -0.02366260439157486, 0.007081368938088417, 0.03225275129079819, -0.0035622362047433853, -0.041710346937179565, 0.05178205296397209, 0.031077181920409203, -0.0015330018941313028, 0.08626832067966461, 0.019794635474681854, 0.006951351650059223, 0.052135441452264786, 0.04911620542407036, -0.017870863899588585, 0.018376341089606285, 0.01867716945707798, 0.034119464457035065, -0.017683647572994232, -0.019241036847233772, -0.022723263129591942, -0.011658448725938797, -0.04372343048453331, 0.003931498620659113, 0.004849754273891449, 0.006535256747156382, -0.0026972058694809675, -0.053199633955955505, -0.012469811365008354, -0.025245605036616325, 0.03326163440942764, -0.011597764678299427, -0.025180518627166748, 0.0030748937278985977, -0.06937843561172485, -0.023859431967139244, -0.07643866539001465, -0.054288171231746674, 0.010641786269843578, 0.021092914044857025, 0.041207507252693176, -0.009487719275057316, -0.02594636008143425, -0.031176816672086716, 0.0009953813860192895, -0.014953154139220715, 0.006265091244131327, -0.01445757132023573, -0.11015043407678604, -0.020927494391798973, 0.033553533256053925, 0.016133995726704597, 0.018826602026820183, -0.03914230316877365, 0.08286070078611374, 0.11776214092969894, 0.030777020379900932, -0.015737567096948624, -0.015254964120686054, -0.05064248666167259, -0.008814330212771893, 0.024891816079616547, 0.04268946498632431, -0.06647015362977982, -0.07717490941286087, -0.05196075513958931, -0.07772685587406158, -0.004158790223300457, -0.009617490693926811, -0.042481958866119385, -0.09892810136079788, -0.026689037680625916, -0.11029913276433945, -0.0533406026661396, -0.055252429097890854, -0.056584473699331284, 0.006588207092136145, 0.013279871083796024, -0.012591570615768433, -0.0467006154358387, -0.00945495069026947, -0.0016927834367379546, -0.07756271213293076, -0.009427173994481564, -0.016254326328635216, 0.04187459871172905, 0.016459964215755463, -0.0368189737200737, -0.0034136532340198755, -0.07024761289358139, -0.0355784073472023, -0.04391147941350937, -0.0009704043623059988, -0.01880129612982273, 0.0019499494228512049, 0.074848972260952, -0.015874430537223816, -0.09218279272317886, -0.09321679919958115, -0.043691083788871765, 0.0015632016584277153, 0.078818678855896, 0.08551686257123947, 0.032438814640045166, -0.008692298084497452, 0.0233305636793375, -0.01232592761516571, -0.017871202901005745, 0.07338888198137283, 0.051142364740371704, 0.032930485904216766, 0.08564929664134979, -0.02162076346576214, 0.03830514848232269, 0.006208871491253376, -0.022062093019485474, 0.01026539783924818, -0.03329915180802345, -0.03110009804368019, -0.04759852960705757, -0.03822477161884308, -0.06965763866901398, -0.05513579398393631, 0.02919115126132965, 0.010151286609470844, -0.014926322735846043, -0.019060168415308, 0.014960977248847485, -0.016778485849499702, -0.01863396354019642, 0.024518536403775215, 0.04056430608034134, -0.030344149097800255, -0.001926695229485631, 0.026993919163942337, 0.017011301591992378, 0.002791228936985135, 0.011333593167364597, 0.03174377605319023, -0.09731835126876831, -0.02018878236413002, -0.013276864774525166, 0.006588599178940058, -0.020636824890971184, -0.02324090152978897, -0.07011732459068298, -0.16497938334941864, 0.029803676530718803, -0.051120154559612274, -0.012592574581503868, -0.052286677062511444, -0.037745580077171326, -0.08122722059488297, -0.14442257583141327, 0.0581183098256588, -0.012638116255402565, 0.01289211306720972, 0.010190121829509735, 0.01168769784271717, 0.029480554163455963, -0.056388650089502335, -0.10272639244794846, -0.01901850663125515, 0.031335216015577316, -0.013388010673224926, 0.014691956341266632, 0.012407935224473476, -0.13222788274288177, -0.16681043803691864, -0.041970040649175644, 0.00024146113719325513, -0.056831229478120804, 0.002859853208065033, 0.0228151623159647, 0.019462870433926582, -0.009531636722385883, 0.026100942865014076, 0.007286056876182556, 0.01980864629149437, 0.029976004734635353, 0.006440524477511644, 0.0014314012369140983, -0.008602216839790344, 0.04423567280173302, 0.09224092960357666, -0.04976398125290871, -0.02131461165845394, -0.0736866369843483, -0.07208143174648285, -0.0632014125585556, 0.05918654054403305, 0.05149373039603233, 0.009054269641637802, -0.05078056827187538, -0.025944922119379044, -0.038843121379613876, -0.04580610617995262, 0.0027298592031002045, 0.017317600548267365, -0.0028443611226975918, -0.00010159933299291879, 0.0049519287422299385, 0.048213642090559006, -0.01752057671546936, -0.03473881259560585, -0.05640248581767082, 0.02965906448662281, 0.03840341418981552, 0.055594075471162796, -0.02602962777018547, 0.0014586301986128092, 0.0017111279303207994, -0.01000977959483862, 0.03332890197634697, 0.011996041983366013, -0.0456717386841774, -0.017601698637008667, -0.02647128328680992, 0.012481595389544964, -0.05473993346095085, -0.0312071330845356, -0.06857309490442276, -0.030424505472183228, 0.008566080592572689, 0.05932771414518356, 0.062197327613830566, 0.04693404585123062, -0.03157795965671539, -0.033083416521549225, -0.06429969519376755, -0.027159273624420166, 0.03487910330295563, 0.014191580936312675, -0.03884764015674591, -0.06962153315544128, 0.05515884608030319, 0.06512309610843658, 0.002546692732721567, -0.015401947312057018, -0.011979012750089169, -0.06933710724115372, -0.059889886528253555, 0.133084237575531, 0.09263043105602264, 0.039065197110176086, 0.11963249742984772, -0.11120472103357315, -0.14945299923419952, 0.03978333994746208, -0.05216784402728081, -0.1353268325328827, -0.14782337844371796, 0.0010002405615523458, 0.0143501665443182, 0.07768141478300095, -0.00847269780933857, -0.0545680932700634, -0.1347018927335739, -0.08820164948701859, -0.013055555522441864, 0.16679534316062927, 0.21730518341064453, 0.034661244601011276, -0.003156814258545637, -0.051709141582250595, -0.058692898601293564, -0.08257265388965607, 0.014399056322872639, 0.023687515407800674, -0.05342727527022362, -0.02207459881901741, 0.052178725600242615, 0.07303953170776367, 0.06749105453491211, -0.052470870316028595, -0.0525474026799202, 0.017538024112582207, 0.005374427884817123, -0.0015428895130753517, 0.004218250047415495, -0.02611241675913334, -0.018822411075234413, -0.07279132306575775, -0.10851265490055084, 0.025307131931185722, 0.04095631465315819, -0.0036799435038119555, -0.03340417519211769, -0.0846521258354187, -0.06571231782436371, -0.04347146674990654, -0.06674746423959732, -0.003601853270083666, 0.014512531459331512, -0.0005569440545514226, -0.02172660268843174, 0.10025878995656967, 0.14453662931919098, -0.0009837071411311626, -0.007754660677164793, 0.03033950924873352, 0.02697574533522129, 0.024515938013792038, 0.018398186191916466, 0.03320472314953804, -0.0063764178194105625, -0.02100508287549019, -0.016662003472447395, -0.023275282233953476, 0.035112716257572174, 0.03034883365035057, 0.0011364179663360119, -0.10738524794578552, -0.12666568160057068, -0.0018427709583193064, 0.02926403284072876, 0.006315762177109718, -0.005564969033002853, -0.0009754893253557384, -0.0009795739315450191, 0.018074605613946915, 0.037837229669094086, 0.017597274854779243, 0.028839292004704475, -0.03184660151600838, -0.01298604253679514, -0.0588240809738636, -0.03989579901099205, -0.0024188808165490627, -0.04109577834606171, -0.05591088533401489, -0.06403139978647232, -0.011008655652403831, -0.06309274584054947, -0.12065477669239044, -0.09467113018035889, -0.08777644485235214, 0.01948275975883007, 0.06875020265579224, 0.06065213680267334, -0.017870401963591576, -0.07016061246395111, -0.049537017941474915, 0.002273391466587782, 0.06362894177436829, 0.06001996994018555, 0.06309003382921219, 0.023727919906377792, 0.057041607797145844, 0.09091345965862274, 0.06695124506950378, 0.027469046413898468, -0.04216647893190384, 0.028691574931144714, 0.05529921129345894, 0.02013658918440342, 0.042682942003011703, -0.04770776629447937, -0.13580280542373657, -0.16851936280727386, -0.03635051101446152, 0.01242495235055685, 0.03572728857398033, -0.0826035887002945, -0.13464036583900452, -0.01363325584679842, -0.05715620890259743, 0.03293372690677643, -0.009173722006380558, -0.029417308047413826, -0.05832253396511078, -0.016789434477686882, -0.01879917085170746, 0.0123642198741436, 0.007898662239313126, -0.003336139488965273, 0.10811203718185425, 0.04400518164038658, -0.009965603239834309, -0.051621295511722565, -0.004739455413073301, 0.02853314019739628, 0.01564423181116581, 0.038689352571964264, 0.0408930703997612, 0.010087080299854279, -0.08120229840278625, -0.036467745900154114, -0.015530775301158428, -0.042624060064554214, 0.047581110149621964, -0.012208948843181133, -0.05906730145215988, -0.01921817846596241, 0.01033668965101242, -0.0007327329367399216, -0.024853017181158066, 0.09767305105924606, 0.03876562789082527, 0.06275221705436707, 0.027215642854571342, 0.008763098157942295, -0.0461529865860939, 0.025103585794568062, 0.041631124913692474, 0.009591122157871723, 0.03851258382201195, -0.016104737296700478, -0.02147085778415203, -0.06752058863639832, 0.008155308663845062, 0.036384280771017075, 0.009484431706368923, 0.012093719094991684, -0.020274311304092407, -0.015701565891504288, 0.002160658361390233, 0.01617227867245674, -0.00039346423000097275, -0.020917773246765137, 0.08258075267076492, 0.025234512984752655, 0.015849357470870018, 0.01293068565428257, 0.011864561587572098, -0.02811095491051674, 0.004691656678915024, 0.06523506343364716, 0.02109346352517605, 0.004444573074579239, -0.017585042864084244, -0.0053325071930885315, 0.0020724735222756863, 0.011021986603736877, 0.0340944305062294, 0.011039209552109241, -0.009431039914488792, -0.05536060780286789, -0.012829581275582314, -0.11869236826896667, -0.10610543191432953, -0.061451904475688934, -0.029634995386004448, 0.0163740087300539, -0.04563320055603981, 0.03465177118778229, -0.018084734678268433, -0.05422038957476616, -0.024120304733514786, -0.03911516070365906, -0.029882175847887993, -0.010041029192507267, -0.015335083939135075, -0.016049813479185104, -0.01041732169687748, -0.0010604551061987877, 0.03839516639709473, 0.04389980435371399, -0.005817631259560585, -0.0712260976433754, 0.02937573753297329, 0.009233562275767326, -0.037778064608573914, -0.0412556491792202, 0.0038527061697095633, -0.005977998021990061, -0.01923937164247036, -0.02230147272348404, 0.011893580667674541, -0.021738998591899872, 0.0045560370199382305, -0.026489337906241417, 0.020437180995941162, 0.042702969163656235, -0.059120435267686844, 0.04317403957247734, 0.027990879490971565, 0.021769238635897636, 0.041936419904232025, 0.011204765178263187, -0.008340489119291306, -0.11246702075004578, -0.07338046282529831, -0.029431508854031563, 0.017620587721467018, 0.004691639449447393, 0.005335913505405188, -0.01752752810716629, -0.11214674264192581, -0.13345161080360413, -0.08896594494581223, -0.000651668175123632, 0.0022298572584986687, -0.015836862847208977, 0.013436533510684967, 0.0327390693128109, 0.05104801431298256, 0.028648821637034416, -0.05611283332109451, -0.016454223543405533, -0.05164232850074768, -0.018457021564245224, 0.008662698790431023, 0.08716120570898056, -0.030819125473499298, -0.020490549504756927, -0.03266550973057747, -0.03512345254421234, 0.010783224366605282, -0.019384602084755898, 0.026164129376411438, -0.039549484848976135, -0.015454256907105446, -0.008260143920779228, -0.0018729949370026588, -0.016921697184443474, 0.009012247435748577, 0.08107124269008636, 0.04866597801446915, 0.013087248429656029, 0.0016281987773254514, -0.03320800140500069, -0.005664830561727285, -0.0017347736284136772, -0.0006511383689939976, 0.03817679360508919, 0.0340036004781723, 0.04986763000488281, -0.06947349011898041, -0.026978833600878716, -0.07367155700922012, -0.050167884677648544, -0.01941961608827114, 0.009892714209854603, -0.012344605289399624, -0.08724779635667801, -0.024837208911776543, -0.06598135083913803, -0.11823933571577072, -0.07776515930891037, -0.06432846933603287, -0.06481512635946274, 0.02110985293984413, 0.03519361838698387, -0.015882182866334915, -0.0619765929877758, 0.045221198350191116, -0.0339728519320488, 0.05151212587952614, 0.083039790391922, 0.01477737259119749, 0.011771698482334614, 0.05340924113988876, 0.030875371769070625, 0.05005250498652458, 0.06221067160367966, 0.0006123492494225502, 0.01047984603792429, -0.03152665123343468, 0.04635198041796684, 0.02840421162545681, -0.011335662566125393, -0.056824102997779846, -0.025148672983050346, -0.002125241095200181, 0.02997523918747902, 0.013605735264718533, -0.00968154240399599, 0.02413836680352688, -0.004481916315853596, -0.01315348595380783, -0.01316232979297638, 0.10658872127532959, 0.08948841691017151, 0.08443006873130798, 0.04277484491467476, -0.16462968289852142, -0.08340328186750412, -0.013633002527058125, 0.1031351163983345, 0.06875985115766525, 0.09230097383260727, 0.00970760639756918, -0.16105665266513824, -0.06042991206049919, -0.07665228843688965, -0.0083889439702034, 0.010798991657793522, -0.08062253892421722, -0.1012878343462944, 0.0690266564488411, 0.10772323608398438, 0.035804904997348785, -0.06417471170425415, -0.060521744191646576, -0.038171540945768356, 0.03852775692939758, 0.10175129771232605, 0.0924675390124321, 0.050448499619960785, 0.0398278646171093, 0.03718159720301628, 0.03869574889540672, 0.039672866463661194, 0.0778021588921547, 0.03135674074292183, -0.006426433101296425, -0.028785396367311478, -0.0014606467448174953, -0.013861645944416523, -0.013508874922990799, -0.021366149187088013, -0.04101565107703209, -0.04970449581742287, -0.02368188463151455, -0.025356357917189598, -0.06448759883642197, -0.09595844149589539, -0.038642000406980515, -0.007926680147647858, -0.031323645263910294, -0.017639590427279472, -0.03289640322327614, -0.06467452645301819, -0.20284268260002136, -0.1897580474615097, -0.035987790673971176, 0.008048574440181255, 0.050825294107198715, -0.06402358412742615, 0.03285908326506615, -0.00246813683770597, -0.1269349455833435, -0.03182341903448105, 0.07588089257478714, 0.2218705713748932, 0.1668844372034073, 0.01207591500133276, 0.08495011180639267, 0.04983095824718475, 0.03334944322705269, 0.015759306028485298, 0.03112597018480301, 0.029519006609916687, 0.14328975975513458, 0.02919449284672737, 0.07399909198284149, 0.07209975272417068, -0.022005409002304077, 0.004296816885471344, 0.07401765882968903, 0.015970032662153244, -0.05198098346590996, 0.032428812235593796, -0.02530766651034355, 0.009977772831916809, -0.014727497473359108, 0.005058258771896362, -0.045618049800395966, -0.015548910945653915, -0.05243820697069168, -0.09263310581445694], [0.0013757024426013231, -0.035411931574344635, -0.023419519886374474, -0.03178410232067108, -0.08295778930187225, -0.07665093243122101, -0.06207364797592163, 0.01928962767124176, 0.0032553966157138348, 0.08300845324993134, 0.0651816800236702, 0.031543198972940445, -0.13700534403324127, -0.07412657886743546, 0.08681048452854156, 0.08306672424077988, 0.08562611043453217, 0.024254832416772842, -0.0361788384616375, -0.03460176661610603, -0.08462805300951004, 0.013610584661364555, 0.00478004477918148, -0.004054659511893988, 0.05464601516723633, 0.07434384524822235, 0.05737616494297981, -0.047670118510723114, -0.05935540422797203, 0.0006533227860927582, 0.10232192277908325, 0.06028936803340912, -0.015361861325800419, -0.09492231905460358, -0.1246558353304863, -0.00921322125941515, -0.025140317156910896, -0.001419939799234271, 0.004347763955593109, -0.015658339485526085, -0.05577939376235008, -0.09107187390327454, -0.008937038481235504, -0.0008401068625971675, 0.036231547594070435, -0.00883607566356659, 0.01244827825576067, -0.05045389011502266, -0.04687345772981644, -0.012508981861174107, -0.01865011267364025, 0.002000062260776758, 0.05484146624803543, 0.0429576151072979, -0.042300738394260406, -0.05727141350507736, 0.006125018931925297, 0.0010734917595982552, 0.06660518050193787, 0.03200245648622513, -0.007835108786821365, -0.004497204441577196, -0.07983887940645218, 0.01079496368765831, -0.02424648590385914, 0.024061447009444237, 0.06912824511528015, 0.030830100178718567, -0.06443235278129578, -0.07706494629383087, 0.007318500895053148, -0.04736872389912605, 0.056065741926431656, 0.048422567546367645, 0.03686113283038139, -0.034944284707307816, -0.049430061131715775, 0.03462677448987961, 0.004855556413531303, -0.042146824300289154, 0.012069308198988438, -0.016501495614647865, -0.08329504728317261, -0.03400339558720589, -0.04237090423703194, 0.07452461123466492, 0.09912915527820587, 0.0763661339879036, 0.023438848555088043, -0.12374939024448395, -0.11056115478277206, 0.0775492712855339, 0.209391251206398, 0.25065717101097107, 0.19372309744358063, 0.03196291625499725, -0.004216296132653952, -0.06554654985666275, 0.010432951152324677, -0.01769988425076008, -0.026553459465503693, -0.05381694808602333, 0.009744538925588131, -0.05047295242547989, -0.056832049041986465, 0.034140344709157944, 0.0020307404920458794, 0.02029521018266678, -0.02772628702223301, -0.00021863245638087392, -0.08040612190961838, -0.02370624989271164, 0.024468133226037025, 0.026677604764699936, -0.010410156100988388, -0.011533712968230247, 0.03194494917988777, 0.008954893797636032, -0.04391380771994591, -0.055698975920677185, -0.028209170326590538, 0.032469432801008224, 0.058099422603845596, 0.03868694230914116, -0.060128528624773026, -0.03338363766670227, -0.011918733827769756, -0.0496521070599556, -0.02986818179488182, -0.021983973681926727, -0.004852745682001114, -0.03419893980026245, -0.003317510709166527, -0.0005890078609809279, 0.005540707614272833, -0.0004988727159798145, 0.028053753077983856, 0.04888344183564186, -0.023065924644470215, -0.02900524251163006, -0.023250790312886238, 0.044991910457611084, 0.010122888721525669, 0.05206487327814102, 0.00614034803584218, -0.04635793715715408, -0.04892082139849663, -0.05444348230957985, 0.009306207299232483, -0.03709590435028076, -0.04456627368927002, -0.018576158210635185, -0.047906387597322464, -0.0021077583078294992, -0.04181447625160217, -0.08057694137096405, -0.24126844108104706, -0.07504512369632721, -0.011524450965225697, 0.025344038382172585, 0.03651026636362076, -0.012136521749198437, -0.03573205694556236, -0.1399020105600357, -0.05373040586709976, 0.020429566502571106, 0.0612584613263607, 0.02055021934211254, 0.014494925737380981, 0.04927387088537216, -0.08182641118764877, -0.010927592404186726, -0.00914080161601305, 0.004789441358298063, -0.059311021119356155, -0.02629082091152668, -0.2135121375322342, -0.27233392000198364, -0.13629919290542603, -0.06240695342421532, 0.042395830154418945, 0.005991960875689983, -0.04578571021556854, -0.10334397852420807, -0.1309269517660141, 0.013596261851489544, 0.03869432210922241, 0.04186059162020683, 0.005948397796601057, -0.01873941347002983, -0.018216559663414955, 0.03347927704453468, -0.024555863812565804, -0.02566678822040558, -0.015780096873641014, 0.023051399737596512, 0.047048211097717285, -0.02084137313067913, -0.014570644125342369, 0.038068849593400955, -0.03855837881565094, -0.015430808998644352, -0.05204584077000618, 0.028674189001321793, -0.021728599444031715, -0.016234463080763817, 0.04251833260059357, 0.04586092382669449, 0.03102756105363369, -0.07215535640716553, -0.00041883523226715624, -0.07752487063407898, -0.09005032479763031, -0.00864169467240572, -0.020304160192608833, -0.022336458787322044, -0.05304257199168205, 0.014422912150621414, -0.11788947880268097, -0.11539957672357559, 0.06408463418483734, 0.017539262771606445, -0.02957526035606861, -0.06417541205883026, -5.667802906828001e-05, -0.008620865643024445, -0.05369526892900467, -0.033862050622701645, 0.014434765093028545, 0.012075466103851795, -0.02351665124297142, 0.02236866019666195, -0.007399050053209066, -0.007683713920414448, -0.07316171377897263, 0.0057169110514223576, -0.029081720858812332, 0.007737170904874802, 0.016980130225419998, 0.000969831773545593, 0.010983333922922611, -0.003241494530811906, -0.026922866702079773, -0.012741549871861935, 0.004128774628043175, -0.004823115188628435, -0.021378938108682632, -0.011047563515603542, -0.052212778478860855, -0.05989732965826988, -0.014414053410291672, -0.039034292101860046, -0.04620903357863426, 0.02282870188355446, -0.07343477010726929, -0.0068171676248312, -0.004262771923094988, -0.007006927393376827, 0.015110035426914692, -0.0437190942466259, -0.052124448120594025, -0.16504476964473724, -0.07302945107221603, 0.008274706080555916, -0.007485830225050449, -0.0024446528404951096, -0.03143736720085144, 0.054523807018995285, -0.0455450601875782, -0.08586800843477249, 0.039066869765520096, -0.006024889647960663, -0.040709711611270905, -0.0061035677790641785, 0.031182335689663887, -0.0701974406838417, -0.13532420992851257, -0.04227983206510544, -0.029608527198433876, -0.008001510985195637, 0.013313044793903828, -0.007952453568577766, -0.1210874617099762, -0.1328178197145462, 0.015446808189153671, 0.021817253902554512, 0.006689662579447031, -0.03939538821578026, -0.06550649553537369, -0.0985044464468956, 0.01996144838631153, -0.07285284996032715, 0.0106654092669487, 0.02990540862083435, 0.013914253562688828, 0.02508467249572277, -0.0012759598903357983, -0.03423977270722389, -0.017247740179300308, -0.02269253134727478, -0.00015436706598848104, 0.01522167306393385, 0.009241253137588501, -0.016472555696964264, 0.004057564307004213, -0.013714814558625221, 0.030771110206842422, -0.03486264497041702, -0.038591574877500534, -0.05596097558736801, -0.036943938583135605, 0.011494111269712448, 0.023717723786830902, -0.0018025401514023542, -0.0226603876799345, -0.026466993615031242, -0.13737548887729645, -0.03165462613105774, 0.006175981368869543, -0.02603980340063572, -0.03384442254900932, -0.016323473304510117, 0.0194180216640234, -0.013088884763419628, -0.03487035632133484, -0.0014910964528098702, 0.028714166954159737, -0.006055021192878485, -0.004683473613113165, -0.011089458130300045, 0.043101564049720764, 0.007185360416769981, -0.0051919687539339066, 0.02530905231833458, -0.0006775819347240031, -0.01202185545116663, -0.0014156590914353728, -0.01222188025712967, 0.02141224779188633, -0.023591667413711548, -0.051335740834474564, 0.021403184160590172, -0.026795225217938423, -0.0035554049536585808, -0.014306917786598206, -0.021684834733605385, 0.06509770452976227, 0.00948880985379219, 0.016801416873931885, -0.039912912994623184, -0.024601154029369354, -0.01280292496085167, 0.0018427945906296372, 0.022709248587489128, -0.001244485261850059, -0.018151724711060524, -0.057115063071250916, -0.022459154948592186, -0.018299264833331108, -0.15273290872573853, -0.07112568616867065, -0.02197561040520668, -0.06962306052446365, -0.06960348039865494, 0.02947879768908024, 0.03312494978308678, -0.0952824279665947, -0.04535805061459541, 0.10488581657409668, -0.01058985572308302, -0.09330034255981445, 0.023074429482221603, 0.15845686197280884, 0.1273888647556305, 0.09253018349409103, 0.06174522265791893, -0.06867967545986176, -0.002907190704718232, 0.05828744173049927, 0.11399910598993301, 0.04673241823911667, -0.031616970896720886, -0.08490791916847229, -0.17179745435714722, -0.04908758029341698, -0.001276305178180337, 0.009124426171183586, 0.1387581080198288, -0.10501603037118912, -0.14483876526355743, 0.008293651975691319, -0.0031342492438852787, -0.02082153968513012, -0.04294830933213234, 0.004074160009622574, 0.039789460599422455, -0.01721327379345894, -0.031470563262701035, -0.06495432555675507, -0.002384278690442443, -0.013944936916232109, 0.027703311294317245, 0.003853362752124667, 0.015666382387280464, -0.07217707484960556, -0.07405173778533936, 0.03955431282520294, 0.017834234982728958, 0.01455018576234579, 0.033880848437547684, 0.029726408421993256, -0.025797203183174133, -0.07781423628330231, -0.07018426060676575, -0.040907688438892365, 0.06274856626987457, 0.06459249556064606, 0.016970647498965263, -0.07202805578708649, -0.07644283026456833, 0.002261081710457802, -0.024558456614613533, -0.008568687364459038, 0.02109530381858349, -0.007279491517692804, -0.07042153924703598, -0.028053762391209602, 0.03670362010598183, 0.04609467834234238, 0.07415194809436798, 0.028585068881511688, -0.0316232331097126, -0.0461280383169651, -0.02138856053352356, 0.07980189472436905, 0.14947731792926788, 0.07143955677747726, 0.020789282396435738, 0.05144647881388664, 0.02450251393020153, -0.04450257867574692, 0.0073352837935090065, -0.01098591834306717, 0.03759017586708069, 0.021128345280885696, 0.012431016191840172, -0.005700334440916777, -0.019811976701021194, 0.014379679225385189, -0.027631619945168495, -0.05183691531419754, -0.06792456656694412, -0.009786209091544151, -0.015001311898231506, -0.06601887941360474, -0.05385949835181236, -0.10462327301502228, -0.09359347820281982, 0.0036255617160350084, 0.03125016391277313, 0.028947077691555023, -0.05854004621505737, -0.058225300163030624, -0.08984574675559998, -0.041840121150016785, -0.007182575296610594, -0.025077998638153076, -0.14589741826057434, -0.0207792017608881, -0.030240174382925034, -0.04428786411881447, -0.10102283954620361, -0.10713185369968414, -0.034226592630147934, 0.021376794204115868, -0.017879517748951912, -0.03185024857521057, -0.03838878124952316, -0.07461261004209518, -0.020315740257501602, 0.04882069304585457, 0.03864828497171402, 0.008355218917131424, -0.028205063194036484, -0.008732142858207226, -0.02932855673134327, 0.023466724902391434, 0.0606377050280571, -0.019427061080932617, 0.013565795496106148, -0.008141620084643364, -0.008558993227779865, 0.016358736902475357, -0.043233223259449005, -0.02782016433775425, -0.04461562633514404, 0.0037684135604649782, 0.03983287885785103, -0.009197527542710304, -0.00993992667645216, -0.05983380228281021, 0.013985201716423035, 0.01505060214549303, 0.03389080986380577, 0.014059972949326038, 0.04199506342411041, -0.03308263421058655, -0.0053843166679143906, 0.0379573255777359, 0.010853204876184464, -0.03574619069695473, 0.022994153201580048, -0.0681789293885231, -0.10416178405284882, 0.00018131083925254643, 0.004878884181380272, -0.026578404009342194, -0.028333675116300583, -0.0158539991825819, -0.0908137708902359, -0.11168874800205231, -0.055619947612285614, 0.006319138687103987, 0.04680638015270233, 0.033505816012620926, 0.037954334169626236, 0.019862784072756767, 0.03837268427014351, 0.02026846818625927, 0.05967940762639046, 0.01502902340143919, 0.045528531074523926, 0.02043948508799076, 0.01332410704344511, 0.03119569644331932, 0.049668051302433014, 0.017051469534635544, 0.003056787420064211, -0.03378034755587578, 0.011617586947977543, 0.011153903789818287, 0.00219998718239367, 0.022952070459723473, -0.004625766072422266, 0.029188400134444237, 0.018641293048858643, -0.0035828808322548866, 0.02536591701209545, -0.015352468006312847, -0.030653879046440125, -0.06872375309467316, -0.015012367628514767, 0.02251596748828888, -0.02427314780652523, 0.02810223400592804, -0.05289296433329582, -0.10291000455617905, -0.010926625691354275, -0.03206368163228035, -0.021487189456820488, -0.07083889842033386, -0.05344177037477493, -0.08000271767377853, 0.027777574956417084, -0.05637265741825104, -0.03346482291817665, -0.06883129477500916, 0.05014092102646828, -0.04128149524331093, -0.03299092873930931, -0.013695859350264072, -0.015099099837243557, 0.008083857595920563, -0.01577809453010559, 0.040481019765138626, 0.06064065173268318, 0.0028561376966536045, -0.02618257701396942, -0.04154384136199951, -0.006918743718415499, 0.010661151260137558, 0.0530020147562027, 0.005928375758230686, -0.029876360669732094, -0.0694768950343132, -0.06104631721973419, -0.04771021753549576, -0.020749026909470558, -0.035066407173871994, -0.0036957499105483294, 0.02852720394730568, -0.009100791066884995, 0.030695565044879913, 0.0369618684053421, -0.023504192009568214, -0.04017382115125656, 0.03232824429869652, 0.057199180126190186, -0.001581477583386004, 0.027157528325915337, 0.061035994440317154, -0.0018585632788017392, 0.0379403680562973, -0.015277744270861149, -0.12624308466911316, -0.022082136943936348, 0.0070502120070159435, 0.03578899800777435, -0.04412568733096123, 0.025624122470617294, -0.07463812083005905, -0.09782011061906815, 0.028026878833770752, -0.062242887914180756, -0.018140604719519615, -0.029175639152526855, 0.05592052638530731, 0.030038129538297653, -0.01689658686518669, -0.01479027047753334, -0.003793982556089759, 0.01848091557621956, -0.017079636454582214, 0.036232780665159225, 0.027463918551802635, -0.016132812947034836, -0.03273957222700119, -0.02214650623500347, 0.004443958401679993, 0.0025792119558900595, 0.02536560781300068, 0.012633495032787323, 0.007724284194409847, -0.030202791094779968, -0.0025499965995550156, -0.03424323350191116, -0.011108702048659325, -0.00861684512346983, -0.036795537918806076, 0.06143445149064064, 0.10467571020126343, 0.0007445060182362795, 0.0022258206736296415, -0.027330884709954262, 0.020342931151390076, 0.006638540420681238, 0.026806864887475967, 0.04533246532082558, -0.0043288725428283215, 0.00874378439038992, -0.09558125585317612, 0.0007674049120396376, -0.036512117832899094, -0.0349281020462513, -0.0500490702688694, 0.023349445313215256, -0.02987879328429699, -0.07153042405843735, -0.05087776482105255, -0.06680236011743546, 0.0004254710511304438, 0.06827665865421295, 0.05613458901643753, 0.018411267548799515, 0.009093177504837513, 0.05140448734164238, 0.01949872076511383, -0.036167316138744354, 0.07171127945184708, 0.007488053757697344, -0.004325235728174448, -0.03457874432206154, 0.010491450317203999, 0.034170493483543396, -0.007550993002951145, -0.01144079864025116, -0.015000833198428154, 0.00459639448672533, -0.059638697654008865, -0.009960666298866272, 0.03444664552807808, 0.045494578778743744, 0.03134633228182793, -0.013386661186814308, -0.00768614187836647, 0.014112378470599651, -0.04990758001804352, -0.022103020921349525, -0.04898186773061752, -0.04072030633687973, -0.023097051307559013, -0.0261180829256773, 0.0066117229871451855, 0.05298307165503502, 0.06737252324819565, 0.05784511938691139, 0.055500827729701996, -0.07347097992897034, -0.16895972192287445, -0.10714802891016006, 0.04548255354166031, 0.046618230640888214, 0.06682497262954712, -0.0037517284508794546, -0.08124372363090515, -0.015571337193250656, -0.027879441156983376, -0.031003769487142563, 0.004585565067827702, 0.062224265187978745, 0.06989729404449463, 0.047734279185533524, 0.0456356555223465, -0.0885869711637497, -0.03345217928290367, -0.03201305493712425, 0.0516667515039444, 0.08369521051645279, -0.0355677455663681, -0.1412595957517624, -0.06397190690040588, 0.027528636157512665, -0.011816535145044327, 0.03161831200122833, -0.03356806933879852, -0.01587550900876522, -0.02577979676425457, -0.035613223910331726, 0.004489250481128693, 0.02974555641412735, 0.06112591549754143, -0.0358135811984539, 0.02618623524904251, 0.0004629191826097667, -0.04817534610629082, -0.036207765340805054, -0.08200952410697937, -0.0284771416336298, -0.04350503534078598, -0.17032968997955322, -0.0336027555167675, -0.055169735103845596, -0.042643845081329346, -0.024292580783367157, -0.01089949905872345, -0.10426189005374908, -0.25108662247657776, -0.1953585296869278, -0.11892139911651611, -0.005418437998741865, 0.10994523018598557, 0.22301416099071503, 0.08193369209766388, 0.0050657084211707115, -0.043447528034448624, 0.012326241470873356, -0.04063381254673004, 0.04752843827009201, 0.1764790117740631, 0.029225612059235573, 0.058431077748537064, 0.09426096081733704, -0.05290650576353073, -0.02337353490293026, -0.039825763553380966, -0.1333475410938263, -0.024526746943593025, -0.0034168558195233345, -0.059046488255262375, -0.11934231221675873, -0.0076043917797505856, 0.06347629427909851, 0.0717453584074974, 0.05358068645000458, 0.03939664363861084, 0.007784663699567318, -0.005919570568948984, -0.048863258212804794, -0.027442755177617073, -0.00399087043479085, 0.057491328567266464, -0.0081138601526618, 0.008063466288149357, 0.0004895342281088233], [-0.049655016511678696, -0.022208858281373978, 0.029844660311937332, -0.03260141238570213, 0.04467759281396866, -0.01982795260846615, -0.03398209065198898, -0.010503781959414482, -0.0829557329416275, -0.054870281368494034, -0.27307721972465515, -0.25807228684425354, 0.006549292244017124, -0.027896439656615257, -0.017979418858885765, -0.15187302231788635, -0.18581871688365936, -0.20779818296432495, -0.28925612568855286, -0.02725229598581791, 0.026703743264079094, -0.040731411427259445, 0.031177908182144165, 0.03138649836182594, 0.032292257994413376, -0.04965846985578537, 0.05266035348176956, -0.032144006341695786, 0.06295518577098846, 0.05046573281288147, 0.03417899087071419, 0.060779981315135956, 0.03743009641766548, 0.05286000296473503, -0.0230278130620718, -0.02774622105062008, -0.01917468197643757, -0.11525221168994904, -0.15410666167736053, -0.042455416172742844, 0.022542571648955345, -0.039537787437438965, -0.03211665153503418, -0.034252509474754333, 0.005872518755495548, 0.016429176554083824, -0.029736770316958427, 0.03956209495663643, 0.033763159066438675, -0.03569212555885315, -0.06504128873348236, -0.04683681204915047, -0.021415024995803833, -0.04087277874350548, -0.020808730274438858, -0.0006176253664307296, 0.021944154053926468, 0.03290132060647011, -0.09486737102270126, -0.1466885507106781, -0.13009947538375854, -0.01909046433866024, 0.08361022174358368, -0.02487931028008461, -0.02068256586790085, -0.02904672548174858, -0.0950961485505104, -0.09078551083803177, -0.06565917283296585, -0.03678705543279648, -0.02270442806184292, 0.04550556838512421, 0.023540444672107697, 0.03402648866176605, -0.008666648529469967, 0.0440903902053833, -0.005032015033066273, -0.06838348507881165, -0.04714358597993851, 0.012593633495271206, 0.0391526073217392, 0.03135956823825836, 0.014388732612133026, -0.05007150396704674, -0.07676152139902115, -0.008965947665274143, -0.08658396452665329, -0.15349045395851135, -0.09786540269851685, -0.0034279136452823877, 0.02817242406308651, 0.02275041863322258, 0.008536683395504951, -0.16549217700958252, -0.17661358416080475, -0.12295737117528915, -0.13697214424610138, -0.008826905861496925, -0.013180707581341267, -0.0037349059712141752, -0.06440586596727371, -0.03013390675187111, -0.04187232628464699, 0.015008238144218922, 0.014469780959188938, -0.038228921592235565, -0.046499621123075485, -0.1125263124704361, -0.14567823708057404, -0.010678551159799099, 0.06666161864995956, 0.03331511467695236, -0.06005164608359337, -0.033692020922899246, -0.03936171159148216, -0.06977671384811401, -0.02826007641851902, 0.04718928411602974, -0.02863931655883789, -0.013717340305447578, 0.05836370959877968, 